svm_type c_svc
kernel_type sigmoid
gamma 0.009259259259259259
coef0 0.0
nr_class 5
total_sv 243
rho -1.3589428717790533 -0.9378843683346972 -0.13547126408041407 -1.5778446386882525 1.093039868725119 1.1874342743173874 -0.20549890834161555 0.7485548428770453 -1.0829328566789964 -1.2346152503343895
label 1 10 2 3 9
probA -4.203276077100179 -4.149586673583996 -5.622427552163617 -4.290401412542469 -4.315439818191273 -4.0342423444805355 -3.979102214819036 -3.9512477827301296 -4.511054097920112 -4.048157006664576
probB -0.24900058704477881 -0.21333177685087715 0.8031107571744789 -0.14816202453925298 0.029898293062639036 0.053056885776513234 0.10307041304929368 0.22459390245120733 0.16795127188233125 -0.0338096762855857
nr_sv 75 38 44 45 41
SV
0.0 0.7872719204273597 0.0 0.0 1:-0.9195723407757821 2:-0.5481982557582341 3:-0.3424934583716235 4:0.26278285405667545 5:-0.6450906615494882 6:-0.2646725212900993 7:0.15734610413573802 9:-0.3719923124675282 10:-0.8985611662137023 11:-0.33747694419422636 12:0.5461430323089003 13:-0.9445671537582162 14:-0.45395382858648115 15:-0.46634608186142157 16:0.09160228061208131 17:-0.7029886734985247 18:-0.5476024962027909 19:-0.2801340357915528 21:-0.14186705479770212 22:-0.3711169095480188 23:-0.037354186692993174 24:0.4561404679150627 25:-0.5140459832188253 26:-0.36039465854485664 27:-0.50552 28:-0.5204246247228728 29:0.07158441348310074 30:-0.6808482021371876 31:-0.09477754972812291 33:-0.26850971791907197 34:-0.1570112305835042 35:-0.3624429094633027 36:-0.02327963375254416 37:-0.5945367209930195 38:0.26063465619242754 39:-0.434806 40:-1.0 41:-0.6657465501417211 42:-0.619096453305217 43:0.29527423249396323 45:0.5087122368398194 46:-0.725022 47:-0.9526824805593674 48:-1.0 49:-0.6744261025904832 50:-0.22122711429830533 51:-0.30390399999999995 52:-0.8147820639399391 53:0.21919388152437058 54:-0.859067330711787 55:-0.2909562481398018 57:-0.14238404898661472 58:-0.435354 59:-0.9544525255354696 60:-0.5129314035708061 61:-0.7579020169245181 62:-0.9476116563410513 63:-0.572846 64:-0.672277500419467 65:0.9602456145170819 66:-0.7016452524524869 67:-1.0 69:-0.9594664096843606 70:-0.587968 71:-0.5249545887033993 72:0.05691409166737227 73:-0.10990442025602598 74:-0.24727306736498944 75:-0.467609182923336 76:0.11511304487810103 77:-0.03597463403069989 78:-0.5429161207888673 79:-0.39250111478086047 81:-0.19934880212071515 82:-0.479999712938576 83:-0.47926065491370295 84:-0.06169626717225851 85:-0.4689193998391653 86:-0.3934337879454466 87:-0.4210797130434688 88:-0.36269996426394224 89:0.817720833010761 90:-0.8457829189380844 91:0.17710092764910246 93:-0.39817044532950296 94:-0.22405819675115912 95:-0.39573311305117775 96:-0.21437915717740053 97:-0.743985779980205 98:-0.580185408081114 99:-0.043188000000000004 100:-0.5601386369616946 101:0.20092304786463067 102:-0.9063227641120433 103:-0.4022825809163896 105:-0.3189002869169507 106:0.07147400000000004 107:-0.4417303789039623 108:-0.4157184759771716 
0.0 0.0 0.0 0.28236167039882204 1:-0.5614829447491314 2:-0.9965705097487993 3:-0.9543415867954448 4:-0.5604340494009501 5:0.0437014741706494 6:0.6110815085556076 7:-0.5854218729199561 9:-0.91859552175926 10:-0.9769714467176698 11:-0.526184246271751 12:-0.12622395085552385 13:-0.7897715269443584 14:-0.9983200694299896 15:-0.9596806795665866 16:-0.6387417619185192 17:0.408279813083265 18:-0.2779625342033256 19:-0.9586840820969224 21:-0.9147986312187417 22:-0.1677782185190656 23:-0.2458366890961523 24:0.26864622178933817 25:-0.9599117938255678 26:-0.9968267866169291 27:-0.9826443 28:-0.7904573812592182 29:0.23182074443744982 30:-0.6547782269205545 31:-0.9602871048954847 33:-0.9538581599386655 34:0.16623513318616334 35:-0.26132197109126465 36:0.22198439747637844 37:-0.6776885531442596 38:-0.9975016021451112 39:-0.5651999999999999 40:-0.5720298650130329 41:0.21632228846289614 42:0.15473058216386737 43:-0.5499388503872809 45:-0.7071417758022926 46:-0.347958 47:-0.5053945390824641 48:-0.06678117986017129 49:-0.7395922214658218 50:-0.6700032049997997 51:-0.289832 52:-0.5195453338077792 53:0.16663915553523956 54:-0.5782556333823233 55:-0.8380178437291835 57:-0.6519217631132816 58:-0.23326400000000003 59:-0.6801228503686512 60:-0.03375674072014512 61:-0.9206890109875551 62:-0.351792311001326 63:0.505204 64:-0.6770895000269093 65:-0.22849717833027594 66:-0.8288397164130502 67:-0.8069684088599434 69:-0.608836847038323 70:-0.479996 71:-0.5533080937457722 72:-0.24755073112421688 73:-0.8603179439298263 74:-0.7900972663869813 75:-0.7105227840418564 76:-0.6968805337435384 77:0.6403165545243761 78:-0.7741134668488354 79:-0.8531028697104592 81:-0.7927676695707752 82:-0.36710706673460447 83:-0.3643531809785776 84:0.5196697628443958 85:-0.6833717068720422 86:-0.4115651121865376 87:-0.09289151340517476 88:-0.6035936927026035 89:0.038732499210938576 90:-0.7632133518212497 91:-0.7557914089579252 93:-0.22553004887200723 94:0.3663714776717071 95:-0.6347824443760561 96:-0.10904014242059779 97:-0.7659756401365445 98:-0.3982022483851855 99:0.37728800000000007 100:-0.8347963013257195 101:-1.0 102:-0.9688990757855822 103:-0.557087962689919 105:-0.1736064383548228 106:0.18443999999999994 107:-0.9535068472270134 108:-0.9903092685532879 
0.0 0.0 1.0 0.0 1:0.26951715055580094 2:0.07000660213611032 3:-0.2678026402713346 4:-1.0 5:-0.8401293403923631 6:-0.09193545493969335 7:0.258270043829421 9:0.16462246385117973 10:-0.4732804468669326 11:-0.9398830409356725 12:-0.3156653461492924 13:-0.42622383437389033 14:-0.1915498622336842 15:-0.5827123770356802 16:-0.2356690099980493 17:-0.06974477979268734 18:0.11483329256429653 19:0.04115605870214312 21:-0.3486273477540529 22:-0.4843676164294959 23:-0.5696162739341664 24:-0.15853741519289655 25:-0.6225155760903263 26:-0.5153608425524836 27:-0.9363156 28:0.17816337305877972 29:0.3298874722852152 30:-0.21046469073965368 31:-0.6363383260928983 33:-0.9759131387692236 34:-0.6431783897139023 35:-0.546701652720913 36:0.11871407509982879 37:-0.3416669299580398 38:-0.3220427198161333 39:-0.6329819999999999 40:-0.2647266724768763 41:-0.37744337232544123 42:-0.41302687394977733 43:-0.060534980714352926 45:0.21983476407098834 46:-0.521512 47:0.07501109173639842 48:-0.6963473237717206 49:-0.5810931389007825 50:0.007511718280517776 51:-0.708286 52:-0.7276874270163534 53:-0.09469119813093607 54:-0.4434907573060518 55:-0.3172399620165256 57:-0.12631562966524124 58:-0.73876 59:-0.5010274212427095 60:-0.30563404828032925 61:-0.794563061517324 62:0.3025730516960765 63:-0.8063718 64:-0.9621103573015235 65:0.132211991752907 66:-0.6221939980168598 67:-0.7892378678439129 69:-0.2052091721561432 70:-0.9433874 71:-0.3127513146542642 72:0.16335240550149388 73:-0.9290410083785843 74:-0.9959364027469738 75:-0.8760331389677324 76:-0.11402865473017687 77:0.357822000370112 78:-0.09317366304663288 79:-0.9244745414282799 81:-0.6194788321397324 82:-0.46624085888778055 83:0.0921621896653273 84:0.03527778527226677 85:-0.6469098323426996 86:0.2672844258688958 87:-0.7898468496884377 88:-0.48163330133437976 89:-0.33966269853085673 90:-0.43765583350744897 91:-0.5545441703058109 93:0.525334834915268 94:-0.8482218768757657 95:-0.12245906153322861 96:-0.11586488121991578 97:-0.8011724334502625 98:0.9185989972340238 99:-0.521888 100:-0.9643225124642396 101:-0.9238006468452267 102:-0.9203869756860514 103:-0.3887661450937515 105:0.5087355090152916 106:-0.654774 107:-0.887579322738249 108:-0.44395101428578776 
0.0 0.0 1.0 0.0 1:0.26951715055580094 2:0.07000660213611032 3:-0.2678026402713346 4:-1.0 5:-0.8401293403923631 6:-0.09193545493969335 7:0.258270043829421 9:0.16462246385117973 10:-0.4732804468669326 11:-0.9398830409356725 12:-0.3156653461492924 13:-0.42622383437389033 14:-0.1915498622336842 15:-0.5827123770356802 16:-0.2356690099980493 17:-0.06974477979268734 18:0.11483329256429653 19:0.04115605870214312 21:-0.3486273477540529 22:-0.4843676164294959 23:-0.5696162739341664 24:-0.15853741519289655 25:-0.6225155760903263 26:-0.5153608425524836 27:-0.9363156 28:0.17816337305877972 29:0.3298874722852152 30:-0.21046469073965368 31:-0.6363383260928983 33:-0.9759131387692236 34:-0.6431783897139023 35:-0.546701652720913 36:0.11871407509982879 37:-0.3416669299580398 38:-0.3220427198161333 39:-0.6329819999999999 40:-0.2647266724768763 41:-0.37744337232544123 42:-0.41302687394977733 43:-0.060534980714352926 45:0.21983476407098834 46:-0.521512 47:0.07501109173639842 48:-0.6963473237717206 49:-0.5810931389007825 50:0.007511718280517776 51:-0.708286 52:-0.7276874270163534 53:-0.09469119813093607 54:-0.4434907573060518 55:-0.3172399620165256 57:-0.12631562966524124 58:-0.73876 59:-0.5010274212427095 60:-0.30563404828032925 61:-0.794563061517324 62:0.3025730516960765 63:-0.8063718 64:-0.9621103573015235 65:0.132211991752907 66:-0.6221939980168598 67:-0.7892378678439129 69:-0.2052091721561432 70:-0.9433874 71:-0.3127513146542642 72:0.16335240550149388 73:-0.9290410083785843 74:-0.9959364027469738 75:-0.8760331389677324 76:-0.11402865473017687 77:0.357822000370112 78:-0.09317366304663288 79:-0.9244745414282799 81:-0.6194788321397324 82:-0.46624085888778055 83:0.0921621896653273 84:0.03527778527226677 85:-0.6469098323426996 86:0.2672844258688958 87:-0.7898468496884377 88:-0.48163330133437976 89:-0.33966269853085673 90:-0.43765583350744897 91:-0.5545441703058109 93:0.525334834915268 94:-0.8482218768757657 95:-0.12245906153322861 96:-0.11586488121991578 97:-0.8011724334502625 98:0.9185989972340238 99:-0.521888 100:-0.9643225124642396 101:-0.9238006468452267 102:-0.9203869756860514 103:-0.3887661450937515 105:0.5087355090152916 106:-0.654774 107:-0.887579322738249 108:-0.44395101428578776 
0.0 0.0 0.3554402853058542 0.0 1:-0.6680026685381091 2:0.6037839823659072 3:-0.7668665753852703 4:-0.6676816162774036 5:-0.5786553442913388 6:-0.45706685687334403 7:-0.5585715080118023 9:0.8015294676339102 10:-0.5850392541265168 11:-1.0 12:-0.25604473519113025 13:-0.7424905346020787 14:0.05857684984941547 15:-0.7479000613885798 16:0.21063561320463542 17:-0.2927803184473764 18:-0.4518639034740909 19:-0.6982569198667328 21:0.13544121518046537 22:-0.4258371823539562 23:-0.7369099269959212 24:0.02931440503272209 25:-0.611048773414139 26:-0.018876809971398734 27:-0.571546 28:0.3029760171084077 29:-0.3518267108586336 30:-0.5493118106246306 31:-0.8208028819138515 33:-0.14453784509207723 34:-0.42762590968529857 35:-0.4936077106412031 36:-0.001082745900905513 37:-0.76352901487919 38:0.11935646664680455 39:-0.540586 40:-0.38195568443332384 41:-0.15868248572662014 42:-0.4755173264708993 43:-0.6819373451660447 45:0.14472662115109247 46:-0.5901000000000001 47:0.1732993530680258 48:-0.4477422067520578 49:-0.6659653705523401 50:0.16016986498938346 51:-0.74048 52:-0.29066861790899656 53:-0.49999576751824204 54:-0.6743720039536847 55:-0.7233325538217328 57:0.048961311707699684 58:-0.5260480000000001 59:-0.6436478956372113 60:-0.5199871859577438 61:-0.664901432635145 62:-0.11599576036294124 63:-0.746002 64:0.09504437908848495 65:-0.17629472743007646 66:-0.5521747006180822 67:-0.9542198922557451 69:-0.1934363902786762 70:-0.627266 71:0.002109213336615845 72:-0.0020970954073940007 73:-0.7751820274044408 74:-0.9940369558827459 75:-0.5813000394606905 76:-0.23182919849035 77:0.27877287345922785 78:-0.6027873811113288 79:-0.9933332703513638 81:-1.0 82:-0.7492601709450779 83:0.47505142050097593 84:0.31210403549607935 85:-0.15564582567337204 86:0.3110729212494501 87:-0.754089132778218 88:-0.4146924246564784 89:-0.4391529350111064 90:-0.8430644354537454 91:-0.8692852126877666 93:0.3213854584911844 94:-0.2892347052045121 95:0.14462225389678074 96:-0.4090223147364642 97:-0.32195462431183497 98:0.5541331547804091 99:-0.5848519999999999 100:-1.0 101:-0.7325216972364681 102:-0.9171746907436371 103:-0.2569015030191949 105:0.5747557848528555 106:-0.26885400000000004 107:-0.95731353641024 108:-0.9045312813031351 
0.0 0.0 0.8091965993994458 0.0 1:-0.6680026685381091 2:0.6037839823659072 3:-0.7668665753852703 4:-0.6676816162774036 5:-0.5786553442913388 6:-0.45706685687334403 7:-0.5585715080118023 9:0.8015294676339102 10:-0.5850392541265168 11:-1.0 12:-0.25604473519113025 13:-0.7424905346020787 14:0.05857684984941547 15:-0.7479000613885798 16:0.21063561320463542 17:-0.2927803184473764 18:-0.4518639034740909 19:-0.6982569198667328 21:0.13544121518046537 22:-0.4258371823539562 23:-0.7369099269959212 24:0.02931440503272209 25:-0.611048773414139 26:-0.018876809971398734 27:-0.571546 28:0.3029760171084077 29:-0.3518267108586336 30:-0.5493118106246306 31:-0.8208028819138515 33:-0.14453784509207723 34:-0.42762590968529857 35:-0.4936077106412031 36:-0.001082745900905513 37:-0.76352901487919 38:0.11935646664680455 39:-0.540586 40:-0.38195568443332384 41:-0.15868248572662014 42:-0.4755173264708993 43:-0.6819373451660447 45:0.14472662115109247 46:-0.5901000000000001 47:0.1732993530680258 48:-0.4477422067520578 49:-0.6659653705523401 50:0.16016986498938346 51:-0.74048 52:-0.29066861790899656 53:-0.49999576751824204 54:-0.6743720039536847 55:-0.7233325538217328 57:0.048961311707699684 58:-0.5260480000000001 59:-0.6436478956372113 60:-0.5199871859577438 61:-0.664901432635145 62:-0.11599576036294124 63:-0.746002 64:0.09504437908848495 65:-0.17629472743007646 66:-0.5521747006180822 67:-0.9542198922557451 69:-0.1934363902786762 70:-0.627266 71:0.002109213336615845 72:-0.0020970954073940007 73:-0.7751820274044408 74:-0.9940369558827459 75:-0.5813000394606905 76:-0.23182919849035 77:0.27877287345922785 78:-0.6027873811113288 79:-0.9933332703513638 81:-1.0 82:-0.7492601709450779 83:0.47505142050097593 84:0.31210403549607935 85:-0.15564582567337204 86:0.3110729212494501 87:-0.754089132778218 88:-0.4146924246564784 89:-0.4391529350111064 90:-0.8430644354537454 91:-0.8692852126877666 93:0.3213854584911844 94:-0.2892347052045121 95:0.14462225389678074 96:-0.4090223147364642 97:-0.32195462431183497 98:0.5541331547804091 99:-0.5848519999999999 100:-1.0 101:-0.7325216972364681 102:-0.9171746907436371 103:-0.2569015030191949 105:0.5747557848528555 106:-0.26885400000000004 107:-0.95731353641024 108:-0.9045312813031351 
0.0 0.0 1.0 0.0 1:-0.699548601183514 2:0.38366397256918927 3:-0.9448138757564238 4:-0.750755012289616 5:-0.43785584699083946 6:-0.5896305003160146 7:-0.5275117662026467 9:0.3712688150273096 10:0.09413877838874263 11:-0.1939575916155507 12:-0.9973023367850051 13:-0.47998519697167197 14:0.15916566414183286 15:-0.9221253425033564 16:-0.7871640257889916 17:-0.21691224794115105 18:-0.5541126476929465 19:-0.8452424595260328 21:0.14683740303175763 22:-0.19890526462495406 23:-0.13159699670052727 24:0.02523966137199052 25:-0.5678237476623365 26:-0.5639432582364496 27:-0.9373292 28:-0.5289282907152575 29:-0.2605809170591611 30:-0.4297448366247494 31:-0.7190493894437343 33:-0.49348047021259966 34:-0.9219571867900538 35:-0.46180152131757046 36:0.8809433140142178 37:-0.5898219368936441 38:0.1973879258453064 39:-0.8145401999999999 40:-0.8029724443444839 41:-0.06519401727504315 42:-0.6162378179510763 43:-0.5749788328263665 45:0.5923824698031217 46:-0.49522999999999995 47:-0.904618289499479 48:-0.7732129909564042 49:-0.40294544368017193 50:-0.058831777573013944 51:-0.48775999999999997 52:-0.6803444076359062 53:-0.15385706062606874 54:-0.6576576779186256 55:-0.5234455830038125 57:-0.10648617190860565 58:-0.5443439999999999 59:-0.7825888614331876 60:-0.23542075290557407 61:-0.1722461222926931 62:-0.4158281261779849 63:-0.15126799999999996 64:-0.5850009128025571 65:-0.37951489009911754 66:-0.7837372035629511 67:-0.5105285587839978 69:-0.6514791883935526 70:-0.625084 71:-0.17273148671816607 72:0.4294668846971419 73:-0.4592496130126047 74:-0.9769963658712556 75:-0.7889393887799435 76:-0.46661867029173454 77:0.21775762992923142 78:0.019329727215015025 79:-0.6412563391352324 81:0.024942502842114633 82:-0.21276849213810523 83:-0.22978411098810625 84:-0.06788208198534729 85:0.41787309008900975 86:-0.4614688737351518 87:-0.25839464590863126 88:-0.6855577277472971 89:-0.16716491683589307 90:-0.7916112978897183 91:-0.14363922618791702 93:0.47213996603999697 94:-0.026397860261547224 95:-0.6662995297407905 96:-0.7386762818983722 97:-0.125179265164318 98:0.007503474076612893 99:0.17758399999999996 100:-0.7651927225445483 101:-0.9932794888745632 102:-0.9762193089719892 103:-0.5018910609751857 105:0.08619679061497587 106:-0.18346799999999996 107:-0.8451042527416986 108:-0.9839459287303063 
1.0 0.0 0.0 0.0 1:-0.6682359057001014 2:-0.6338689582468134 3:-0.5213311829306249 4:0.16245990719410974 5:-0.1672686769555698 6:-0.6034000850443317 7:-0.6384654141888693 9:-0.5606881860013666 10:-0.3027761888685977 11:-0.7201552781709776 12:0.7452467498533639 13:-0.6830473861717541 14:-0.9968895270552347 15:-0.575687626957073 16:-0.4969492245276915 17:0.019269556231388707 18:-0.886675578967728 19:-0.5936040948549162 21:-0.9918089899818838 22:0.4295339641678273 23:-0.2883141513600582 24:-0.09452097745815513 25:-0.515354074785235 26:0.05852694082041365 27:-0.9249814 28:-0.7966498694659342 29:-0.5436142860393329 30:-0.8344844340227565 31:-0.005566561922271895 33:-0.1626391923381295 34:-0.12799169205985084 35:-0.2844543059785437 36:0.1588484931686731 37:-0.8084503281289972 38:0.030424340445195597 39:-0.32256799999999997 40:-0.959486840678429 41:-0.994722072727399 42:-0.17396334409060465 43:-0.6854589356831509 45:0.6979418720947836 46:-0.55225 47:-0.9731574476280881 48:-0.6731643746110394 49:-0.9985459554312458 50:-0.34195745362765906 51:-0.298334 52:-0.2501796713292671 53:0.05376098329016199 54:-0.46030628687603803 55:-0.9828624728942557 57:-0.18603476632676308 58:-0.752066 59:-0.8526637921547835 60:-0.24328244989981473 61:-0.810347089086243 62:-0.7838434793406388 63:-0.8212904 64:-0.18075073525454532 65:0.14043410879818974 66:-0.7737482082108704 67:-0.7874271961360682 69:-0.9968495465406397 70:-0.8467738 71:0.1301391282361788 72:0.6007205122763106 73:-0.961674078806195 74:-0.3920610319856773 75:-0.3274736544805912 76:-0.3580723344125065 77:0.020258183282795716 78:-0.0960572163747897 79:-0.9400138308405069 81:0.1254250074654626 82:-0.7620645457611792 83:-0.0011070440689883165 84:-0.16634249595910777 85:-0.6336561167289623 86:-0.22758743950725913 87:-0.39745934747515743 88:-0.2784749812560874 89:0.06037958325641224 90:-0.3984158641518035 91:-0.5207385159661698 93:0.16691104746552 94:-0.34645649868028316 95:-0.32004081698764153 96:0.03129888489091193 97:-0.669925421203001 98:-0.011233954814419245 99:-0.20121 100:-0.22774484157082486 101:-0.3542141432722484 102:-0.9016792833783591 103:-0.39320609313305177 105:0.04932425532391127 106:0.022121999999999975 107:-0.6678072026249708 108:-0.282543702387129 
0.9527058109831447 0.0 1.0 0.0 1:-0.31695474748524943 2:0.4047987945777294 3:-0.45091902651220184 4:-0.46733882967584073 5:-0.850162166407935 6:-0.60168864700377 7:-0.6237983138901012 9:0.7757038841094059 10:-0.21873018385376652 11:-0.6224052388509987 12:-0.6396117107345678 13:-0.12149121032735977 14:0.2383704179323176 15:-0.10692343396734927 16:-0.9762890915331413 17:-0.8140749570553816 18:-0.577324830618874 19:-0.42424556832635874 21:0.5499527739498011 22:-0.17963719459314376 23:-0.6564391675976202 24:-0.7850389929219007 25:-0.39089936295540684 26:0.24970598962165758 27:-0.41289600000000004 28:-0.9308790535050026 29:-0.4386861738301643 30:0.023802250208787123 31:-0.12832291831125553 33:0.20395217777119434 34:-0.6375118763772077 35:-0.9531068973388253 36:-0.9930516602302775 37:-0.6901002783414478 38:0.2630716192306053 39:-0.572074 40:-0.8817910172017013 41:-0.7936425156333006 42:-0.9830596157934262 43:-0.5874909843519709 45:0.9039457585391337 46:-0.580566 47:-0.9690408141506481 48:-1.0 49:-0.4770158669529351 50:0.1280277232482674 51:-0.40265799999999996 52:-0.9012359984162862 53:-0.5398572807151202 54:-0.2375483106318811 55:-0.4222295449069545 57:-0.008162748918296603 58:-0.44998400000000005 59:-0.8817567202553047 60:-0.7268030072703572 61:-0.3155016872846177 62:0.10753644269616092 63:-0.556944 64:-1.0 65:-0.35949158744054144 66:0.2604625302732524 67:-0.46762208647951653 69:-0.7020395770352867 70:-0.410142 71:-0.5633786448248865 72:-0.46451158131110803 73:-0.9889408912585895 74:-0.49226678780429145 75:-0.7753845414247111 76:0.30893269179172544 77:0.2470424310303745 78:-0.5617297939019468 79:-0.7151829374286729 81:-0.29488838478826906 82:-0.5871769661913409 83:-0.025832056172464424 84:-0.20187046089471117 85:-0.5709255068354708 86:-0.2840326660800705 87:-0.6655388550949082 88:-0.401792408540217 89:0.27604647423490825 90:-0.1280516142103697 91:-0.17338705549720645 93:-0.12383690727274765 94:-0.16666020610370502 95:-0.35668702116976303 96:0.05677238567055931 97:-0.5211650720763787 98:0.5225356640866832 99:-0.390794 100:-1.0 101:-0.7665321239544882 102:-0.3834005403099673 103:-0.3887933654836383 105:0.37793719162722916 106:-0.34750800000000004 107:-0.8878228064404848 108:-0.3727018682995238 
0.0 0.688498374464024 0.0 1.0 1:-0.6855221410686283 2:-0.44894259336165865 3:-0.9578929498038434 4:-0.3120129619628115 5:0.3094296520704174 6:-0.2439727731521586 7:-0.989621375141759 9:-0.9975980182720321 10:-0.895232905145962 11:-0.39342569953816897 12:0.610287243148937 13:-0.8495020459043706 14:-0.7305401403887561 15:-0.9707693037137596 16:-0.2520871452593837 17:0.19317373194399745 18:-0.20813029404904804 19:-0.7176855769341618 21:-0.9986172305405447 22:-0.7310403538726507 23:-0.24663168013301806 24:0.6566114517108186 25:-0.6555018851319592 26:-0.6980734162150403 27:-0.602634 28:-0.3231166986518351 29:-0.17347369591982742 30:-0.37330924157892054 31:-0.21262433091759148 33:0.20128868206337258 34:-0.18077402844706192 35:-0.4404664715837703 36:-0.018378029927717532 37:-0.8934320183373099 38:0.5731399004055524 39:-0.902551 40:-0.8607142139951082 41:-0.9504444915112017 42:-0.6247068990750029 43:-0.6601335883847095 45:0.6876698458079262 46:-0.8548804 47:-0.4133554824131491 48:-0.5736955708956517 49:-0.8969339087452549 50:0.3791414606786587 51:-0.7750440000000001 52:-0.3232209531351018 53:-0.714919074948787 54:-0.6652794285823521 55:-0.36147370211318497 57:0.030002277270311906 58:-0.8893542 59:-0.5790694184615692 60:-0.7309816745092232 61:-0.9393136653492553 62:-0.5109206132395527 63:-0.6582479999999999 64:-0.01670586968978438 65:0.20596378222379297 66:-0.5144552489867034 67:-0.6693611836569668 69:-0.7459872476930998 70:-0.90778 71:-0.010457351085324418 72:0.2859560588682284 73:-1.0 74:-0.08674879085054643 75:-0.5335165484515184 76:0.10225687302126762 77:-0.23014065461424293 78:-0.4487110833097038 79:-0.7015179914294136 81:0.23067754965187381 82:-0.43616830411287255 83:0.012963825253556216 84:-0.44846912120714133 85:-0.9686435822468477 86:0.346392432908051 87:-0.43056559404923356 88:-0.22444813483471482 89:-0.4815657362688407 90:-0.6455739801571474 91:0.16443609130311065 93:0.11670107099833182 94:-0.0857528141624938 95:-0.25549490597515345 96:-0.7580007382167796 97:-0.4991617459922032 98:0.14015076031129858 99:-0.37104000000000004 100:-0.20051278226595148 101:-0.2958119303662765 102:-0.8496543722451301 103:-0.26305936010912345 105:-0.24758652623450528 106:-0.01832800000000001 107:-0.7406316937961797 108:-0.08613852231223262 
0.8782238393649416 0.0 1.0 0.0 1:-0.2559665219764511 2:0.10715959066756109 3:-0.6107623472851166 4:-0.43955217300252414 5:0.20587224581656494 6:-0.39477135630937144 7:-0.1729433789938949 9:0.1626216808066252 10:-0.6529428323277291 11:-0.644510216045411 12:-0.28673825857735247 13:-0.4619338927919141 14:0.03160216992237341 15:-0.4405928240243957 16:-0.5995989915526484 17:-0.1363893887133838 18:-0.2359480507659838 19:-0.24358545742403803 21:0.5354566991313503 22:-0.5829469895521515 23:-0.5481930840975813 24:-0.2409582452184471 25:-0.7625533787365115 26:0.32835360586613094 27:-0.30020199999999997 28:-0.7476988632963211 29:-0.6201184688545229 30:-0.3053650724472975 31:-0.5860304590588623 33:0.4225618110673597 34:-0.5232576124313781 35:-0.5979098848627051 36:-0.35412476050066555 37:-0.23299248141757434 38:0.31108854663853536 39:-0.68973 40:-0.9333479257953227 41:-0.5852878575867948 42:-0.9725259077182087 43:-0.05129982125497823 45:0.36025552254807813 46:-0.31312399999999996 47:-0.9241108554566184 48:-1.0 49:-0.4446823169673615 50:-0.14102399743600025 51:-0.542728 52:-0.6526374347845698 53:-0.23302139942776845 54:-0.29734610596909694 55:-0.013822157971569049 57:-0.1923524202322816 58:-0.55101 59:-0.6332356266069088 60:-0.32853008227380753 61:-0.5827352427185752 62:-0.3751812710928596 63:-0.517934 64:-0.5106238609754219 65:0.0268105453896077 66:-0.06931252885971528 67:-0.4183941079409482 69:-0.3845335375110559 70:-0.76813 71:0.11900532071797532 72:0.07894733948202748 73:-0.36857089035766655 74:-0.9055222723993266 75:-0.17613689854996983 76:0.21671481209866372 77:0.042677771636124406 78:-0.4139404041335837 79:-0.9859163876565417 81:-0.6569816480597656 82:-0.3786526772066052 83:-0.016278790084092165 84:-0.32280044247462025 85:-0.300790213076365 86:-0.38269907611086673 87:-0.618394468073452 88:-0.23578791000119115 89:0.21890353201803237 90:-0.23406082017968732 91:-0.31846556069437537 93:-0.3260247486947325 94:-0.39101793804672524 95:-0.05517582079398753 96:0.18974933271731564 97:-0.48677309238299793 98:-0.13925533865272255 99:-0.409976 100:-0.624619177550156 101:-0.31662430555840704 102:-0.4483469358737381 103:0.3009531673192001 105:-0.13763200487940663 106:-0.296984 107:-0.6048403918202312 108:0.07267721106082625 
1.0 1.0 0.0 0.0 1:-0.34232665332397616 2:0.35795823616479794 3:-0.5776648447293605 4:-0.9363772636591092 5:-0.6037750463371556 6:-0.9743702129590257 7:-0.39842645470370064 9:0.5119697143376054 10:-0.10740213516001684 11:-0.5143796737156665 12:-0.04311981415679922 13:0.27938918030478055 14:0.4490147033055685 15:-0.4437570808981699 16:-0.9852077515130414 17:-0.9980824853942973 18:-0.5251070898303061 19:-0.22487117116078525 21:-0.28848458572689417 22:-0.03174902375178901 23:-0.7405868904419215 24:-0.8146517321663254 25:-0.033782364765533646 26:0.6923531707691619 27:-0.337002 28:-0.9750933554636121 29:-0.9983281531651106 30:-0.3226748520244268 31:-0.5575304768840835 33:-0.450485998817748 34:-0.5212951227008036 35:-1.0 36:-0.9903705092009526 37:-0.6172565582483751 38:0.06376841554840795 39:-0.10226000000000002 40:-0.9211115439761915 41:-0.8379863452392939 42:-0.9813709912606517 43:-0.18961397347047582 45:0.5673116774499365 46:-0.368502 47:-0.9622430414401029 48:-0.996951193728372 49:-0.460993869049636 50:-0.01739313328792913 51:0.053331999999999935 52:-0.8400412968410924 53:-0.45185763624358777 54:-0.43666514111708465 55:-0.24444775146335573 57:-0.4576979327446169 58:-0.27190000000000003 59:-0.7233585770165768 60:-0.8196411463732332 61:-0.41921371344382274 62:0.46257056822666986 63:-0.35558999999999996 64:-0.791647803839258 65:-0.24039826816040122 66:-0.14955955231710139 67:-0.6807666670309136 69:-0.6500904278491373 70:-0.5819099999999999 71:-0.0035730206995667757 72:-0.6848110689688163 73:-0.559841765153935 74:-0.9980258985116105 75:-0.13447081611518508 76:-0.13692605577119144 77:0.20519075881404536 78:-0.6542656416146171 79:-0.39693756471397357 81:-0.5132439922673526 82:0.15735415485528526 83:-0.3747914655844976 84:-0.18465957170222735 85:-0.5739927683411423 86:-0.036237901451825816 87:-0.14117797962516665 88:-0.504172710264657 89:0.25720725817497536 90:-0.73038792966994 91:-0.3160865532850571 93:-0.25574274114280515 94:-0.21577223109081323 95:0.0035309933753382428 96:-0.2923865744983767 97:-0.8278760416456261 98:0.6952590478771599 99:-0.10663800000000001 100:-0.7920093775549404 101:-0.44624792813804115 102:-0.7591173041376369 103:-0.5257058776382985 105:-0.21290189007065907 106:-0.26084799999999997 107:-0.4325907147269533 108:-0.7488413666274548 
0.0 0.0 0.43025879616274315 0.0 1:0.5004669941690709 2:-0.7157886890500378 3:-0.35608971165166425 4:-0.4587278318471899 5:0.1680628723472728 6:-0.24586991593694896 7:-1.0 9:-0.6415620994526132 10:-0.858993487531543 11:-0.7301474141752098 12:0.3647363342782448 13:-0.14054336702970038 14:-0.834016461398972 15:-0.5621172571782216 16:-0.3562876099748382 17:-0.0011059089075523554 18:-0.2976113136921389 19:-1.0 21:-0.22962699162318267 22:-0.584437659827112 23:-0.32917305344106407 24:0.5811126158279907 25:-0.8249939495764703 26:-0.456018734763608 27:-0.8248278 28:-0.5265822683801673 29:-0.21402007852417027 30:-0.14252052160803086 31:-0.7253259044602098 33:0.18055675563729823 34:-0.4030656620540458 35:-0.36638912251767985 36:0.2338026823925461 37:0.31636649751469914 38:-0.5780113943830678 39:-0.254718 40:-0.6553555004879773 41:-0.4754618232658697 42:-0.4357100813899206 43:-0.9891989087146038 45:0.0890283640948133 46:-0.47219 47:-0.8803021079458104 48:-0.9977177910739434 49:-0.15994582667204693 50:-0.3769380233163735 51:-0.0028759999999999897 52:-0.47345725726829413 53:-0.30717447982799195 54:-0.4711643016899866 55:0.1750109840270988 57:-0.35379772779028873 58:-0.733616 59:-0.7945977850918877 60:-0.7473215931722914 61:-0.7764458512142222 62:-0.08096997219401214 63:-0.11741800000000002 64:-0.6267281251879688 65:0.07664027114004446 66:-0.22088349208576297 67:-0.16504758886715543 69:-0.7438742722868346 70:-0.9751754 71:-0.07805420079444814 72:-0.22345007934212568 73:-0.9749577139487456 74:-0.9487074793576143 75:-0.5852761547259685 76:-0.13073049886418509 77:0.08463104319544446 78:-0.07049060640773608 79:-0.9870472667084866 81:-0.6087809554744105 82:-0.36445174856289864 83:0.6983906231208774 84:-0.41136649603759556 85:-0.6600849002255224 86:-0.4319016717993841 87:-0.2560081218891953 88:-0.1468985539742933 89:-0.11993735149266616 90:-0.3389176971147454 91:0.22765381142783436 93:-0.4977806403067613 94:-0.5195854902803767 95:0.48962028323534024 96:-0.464838031723234 97:-0.7041378551919006 98:0.554335089635162 99:-0.28315 100:-0.5914628225821204 101:-0.45556052848048856 102:-0.7865878003696858 103:-0.2087062904808784 105:0.1491282676847019 106:-0.514756 107:-0.3760258806729295 108:-0.4273099466273521 
0.0 0.0 1.0 0.0 1:-0.5022206049263986 2:-0.017562214484234784 3:-0.8201992690107041 4:-0.822583134017437 5:-0.3943147391973608 6:-0.4162603496102838 7:-0.570515488585983 9:0.7066768690722709 10:-0.0901397360752284 11:-0.7864930868328115 12:-0.04354441197964665 13:-0.766686893476629 14:-0.07388813822024498 15:-0.4683524403208177 16:-0.8089933058257341 17:-0.008409893352308906 18:-0.7459925933089477 19:-0.39527493092622257 21:0.302274592384993 22:-0.20570481324758072 23:-0.7455244083032397 24:0.22995350202469655 25:-0.9617483223825668 26:-0.07436447049338724 27:-0.315882 28:-0.5714572602342565 29:0.25669010256682534 30:-0.7423197106487154 31:-0.6163503114320783 33:-0.11933475697316065 34:-0.7114557576074096 35:-0.8396089568137466 36:0.3526015148892483 37:-0.8512401023676859 38:-0.19687961718764257 39:-0.8618196 40:-0.87597866555282 41:0.37070279541816675 42:-0.4349665798179917 43:-0.6147448963592461 45:0.15105760425275294 46:-0.657196 47:-0.6552413183517507 48:0.03257534040400545 49:-0.7091664433403052 50:-0.2976503345218541 51:-0.623032 52:-0.9499710821877302 53:0.20711014610527023 54:-0.6986833420105993 55:-0.45483438921722863 57:-0.2988456769818578 58:-0.582892 59:-0.7679648655948939 60:0.06029953831166934 61:-0.4762223373429805 62:0.07850867662123995 63:0.07956600000000003 64:-0.9045700277850767 65:-0.19389035761963214 66:-0.9670746378989185 67:-0.6787450963251123 69:-0.14211561563543718 70:-0.501662 71:-0.680847411389752 72:-0.17748113218958972 73:-1.0 74:-0.9825505170617 75:-0.9878078484709483 76:-0.8552406228200404 77:0.621215878042084 78:-0.4672491720720735 79:-0.7929553407450515 81:-0.9681028295412277 82:-0.6851539008059249 83:-0.518065787404367 84:0.6459933236368274 85:-0.49002845081665836 86:-0.3729020017597888 87:-0.5685945963777201 88:-1.0 89:0.4418387217798847 90:-0.46577266194338396 91:-0.3040236344763624 93:-0.3871502624238672 94:-0.13094621405137208 95:-0.6021828449872312 96:0.5008976615602487 97:-0.27744748849224254 98:0.47423072119970566 99:-0.13257200000000002 100:-0.9975145426682971 101:-0.9989188815572464 102:-0.9456896345798379 103:-0.35968569523144134 105:0.08654372091136353 106:-0.09628199999999998 107:-0.9940880993830676 108:-1.0 
0.0 0.0 0.0 1.0 1:-0.5284311941708038 2:-1.0 3:-0.9169447550718379 4:-0.4751700155411289 5:-0.41220813592086847 6:0.23110427848958737 7:-0.5018207492960499 9:-0.6363070666049362 10:-0.16979801430318786 11:0.2891233789445089 12:-0.05927086211049626 13:-0.2789337025100722 14:-0.6543882364147595 15:-0.9183776445750962 16:-0.45228024169154446 17:-0.35055272783309843 18:-0.07260718938260513 19:-0.7952564856338071 21:-0.6820804236408962 22:-0.31322016121689555 23:0.36860824608350007 24:0.2259054429982854 25:-0.30937365615593093 26:-0.0605309462719229 27:-0.9508338 28:-0.47386858285089595 29:-0.46772697049908096 30:-0.129464681355964 31:-0.6356592700487054 33:-0.9264603623286798 34:-0.8181643791040039 35:-0.03669422915180076 36:0.18857565791437114 37:-0.733136697143917 38:-0.032698352861060376 39:-0.7378 40:-0.06992132119347605 41:-0.9194630686059714 42:0.07358208588511417 43:-0.22249678572548537 45:-0.0031121335983858023 46:-0.713948 47:-0.3187851023363152 48:-0.4308710209551977 49:-0.6602050906088954 50:-2.1633748647886808E-4 51:-0.28117000000000003 52:-0.0352897544742421 53:-0.9247210794521475 54:-0.6990746623456505 55:-0.6199030571027679 57:-0.1932511829154121 58:-0.625382 59:-0.5396392520933582 60:-0.41185157873634604 61:-0.5694145049505606 62:0.07544868753076628 63:0.29059999999999997 64:-0.29383272602943555 65:-0.929138688282609 66:-0.9328400263441429 67:-0.9356569558423393 69:-0.3834378424047207 70:-0.60178 71:-0.12762404103983538 72:-0.39867796114380216 73:-0.8133582315699812 74:-0.0465489137696069 75:-0.7041249441641244 76:-0.10710868048723765 77:-0.9041618235630647 78:-0.06270030732304188 79:-0.5142616371785085 81:-0.05604073784963237 82:-0.5935325061179966 83:0.35212018983184645 84:-0.04142435621659668 85:-0.5674060208770402 86:0.4200258468983722 87:-0.24721471421118957 88:-0.43173361922179476 89:-0.9373115929514474 90:-0.6126325653250264 91:-0.3696613087816494 93:0.2942822367757181 94:-0.33759495559243946 95:-0.46248724469136193 96:-0.2744333432934011 97:-0.2766103566450987 98:-0.0025480990224758804 99:0.1490100000000001 100:-0.803944933601451 101:-0.9939184777922403 102:-0.9838593601592492 103:-0.049929756271653414 105:0.06530822938247827 106:-0.16032999999999997 107:-0.9652373865815209 108:-0.99587666757419 
0.0 0.0 1.0 0.0 1:-0.627232951247195 2:0.3344328019678624 3:-0.8835812816547767 4:-0.8285491088650567 5:-0.997755459820586 6:-0.3458423767674924 7:-0.011834449149614845 9:0.025761570376501508 10:0.25625827081490504 11:-0.4958721171306424 12:-0.7880342345603575 13:-0.6063353365366608 14:0.029264317289408037 15:-0.7723486871328539 16:-0.6451939483281849 17:-0.33620537272302875 18:-0.6868573899093791 19:-0.6355632923309853 21:0.013133487140578826 22:0.10345537369735847 23:-0.46040113273232697 24:0.1688483578943154 25:-0.8045471182982809 26:-0.6838124732063448 27:-0.785566 28:-0.5074310656447372 29:0.4049607252741141 30:-0.6376540358728031 31:-0.9094040773920173 33:-0.6295793404899351 34:-0.6624377055140538 35:-0.7004312250534148 36:0.7249180777977402 37:-0.8843355222189042 38:0.6154730128232411 39:-0.8638056000000001 40:-0.8277857880130288 41:-0.9059476563648338 42:-0.7781502407299989 43:-0.28627112797516385 45:0.40762993902302846 46:-0.694366 47:-0.6514787262215527 48:-0.1586529330468115 49:-0.7097640338798925 50:0.19346380353351234 51:-0.70616 52:-0.907956558128812 53:-0.4759510386510234 54:-0.8669360180007354 55:-0.3673164958827614 57:-0.00993395916095241 58:-0.783776 59:-0.7906001460598846 60:-0.007256253645504418 61:-0.43512334335413894 62:0.019963102740242267 63:-0.5618540000000001 64:-0.9762675556202783 65:0.07917034543131773 66:-0.9600603527979135 67:-0.4749980877033865 69:-0.06900238940740067 70:-0.8946076000000001 71:-0.574854007394445 72:0.2721330440434022 73:-0.9100829668214616 74:-0.8936402746973786 75:-0.9519066324006322 76:-0.34858783336612587 77:0.3088777264002265 78:-0.4814697726733258 79:-0.9846894862938638 81:-0.5896746106171973 82:-0.586660255628198 83:-0.6127843545994751 84:0.7425749373937656 85:-0.030776823300176726 86:0.45604652441706994 87:-0.49884948567346443 88:-0.9872272322773679 89:-0.8692495280518815 90:-0.7308210027795189 91:-0.0743286265019788 93:0.3541470196546943 94:-0.553267341619299 95:-0.7239805201466387 96:0.09239008981637475 97:-0.32903994667492587 98:0.43065264813648674 99:-0.17197399999999996 100:-0.9494889767291977 101:-1.0 102:-0.9259304422010521 103:0.013263891094244418 105:0.4882918019531619 106:-0.5412520000000001 107:-0.9799374644000353 108:-0.9988667481725391 
0.0 0.012647026453651459 0.0 0.0 1:-0.4974692208388567 2:-0.4908661576632698 3:-0.9038418149989359 4:-0.05013942927684145 5:-0.051852886212964355 6:0.20842719688184852 7:-0.15854926470712138 9:-0.8777488808864183 10:-0.681222633056813 11:-0.46379559330273523 12:0.15728491466536387 13:-0.5599425258940625 14:-0.3432586231835485 15:-0.5969590193798255 16:-0.5075744668242057 17:-0.26622037501189755 18:0.4943949211261356 19:-0.3781784505185817 21:-0.40216155954353316 22:-0.4767291885833085 23:-0.3604375048712686 24:-0.13916437067625542 25:-0.7396497754842839 26:-0.14161510554300738 27:-0.46314599999999995 28:-0.9389087272296854 29:-0.5765509534897244 30:0.3783722634814948 31:-0.8306193160887051 33:-0.10375975323576325 34:-0.31300003816510225 35:-0.4324033650771455 36:-0.5822988354811176 37:-0.7521181366308964 38:-0.1434634303538096 39:-0.61776 40:0.16342821111142336 41:-0.6523001177054724 42:-0.015898755596291392 43:-0.69607325410016 45:-0.5268589042013803 46:-0.38559200000000005 47:0.03611950873065828 48:-0.6345484234328396 49:-0.7476935777499176 50:0.09221185048675928 51:-0.552344 52:-0.687036099653688 53:-0.7321685543535308 54:0.2806205350968236 55:-0.43716427852658135 57:-0.4003795450519977 58:-0.554608 59:-0.3931992116767875 60:-0.7272926003942937 61:-0.9257393380438628 62:0.10510175572417535 63:-0.22156200000000004 64:-0.9255678634405164 65:-0.45257734147386186 66:-0.01760010721940497 67:-0.5957241047719996 69:-0.3198796055497617 70:-0.931853 71:0.9159419711275087 72:-0.488906948126855 73:-0.6564862363530636 74:-0.04531705101141015 75:-0.44438546484493147 76:0.14658495358362988 77:-0.6384563189348518 78:-0.6153365514229112 79:-0.2353170134453908 81:-0.20356089459814852 82:0.1820156017883927 83:-0.08900757662194292 84:-0.3090479192164961 85:-0.8956206977233447 86:0.6298229212494499 87:-0.4862906288277028 88:-0.8211410313005822 89:-0.9416520268459573 90:-0.68694385878271 91:-0.36943200686267885 93:0.6424781583363337 94:-0.39481205047696577 95:-0.49646090801600284 96:-0.9384841948791861 97:-0.8413466825564615 98:0.2954572628793253 99:0.07560999999999996 100:-0.9935896869410793 101:-0.992971970496412 102:-0.8309960472060287 103:-0.4616593247226166 105:0.6077309499595016 106:-0.655188 107:-0.465956405586888 108:-0.9907349655055504 
1.0 1.0 0.0 1.0 1:-0.20817196475450328 2:-0.46332886091854886 3:-0.741995962458988 4:-0.07807212847333211 5:-0.28577179319064727 6:-0.26675325853793386 7:-0.1735837165528944 9:-0.3155356932847231 10:-0.08496862975700203 11:-0.2887773631307282 12:0.13179271460902275 13:-0.33852038637701876 14:-0.4189965814197163 15:-0.36201793744354005 16:-0.34616362823751345 17:-0.24586983814751184 18:-0.3658393396553783 19:-0.208162810447721 21:-0.1764086524317544 22:-0.034370269862819325 23:-0.30980488945467777 24:0.024033515900706348 25:-0.5552708689608272 26:-0.38068553366562796 27:0.15870399999999996 28:-0.3139347608959039 29:-0.31479444920578326 30:-0.6339380947564985 31:-0.5643515948480018 33:-0.32646475119905305 34:-0.16526493611362758 35:-0.5318154430801438 36:-0.3068898213528952 37:-0.8033584428370648 38:-0.9650816273173342 39:-0.9319026 40:0.12274335607883136 41:-0.21298440662900564 42:-0.25542376918976495 43:-0.7459277493806642 45:-0.7482745527238615 46:-0.6674640000000001 47:1.0 48:-0.4294877843966616 49:-0.6968573103702494 50:-0.6261007171187052 51:-0.6661619999999999 52:-0.47578070575499554 53:-0.2466732693382091 54:-0.3457326405014298 55:-0.5557598820811542 57:-0.4826952759292529 58:-0.008603999999999945 59:-0.1648175752058344 60:-0.2602912776869445 61:-0.46722878572479043 62:-0.3584023309134289 63:-0.18310800000000005 64:-0.8014402230404029 65:-0.757178804820878 66:-0.6244954457929472 67:-0.7519295072831182 69:-0.2876503280484747 70:0.43766400000000005 71:-0.3601343154150005 72:-0.5601290148050317 73:1.0 74:-0.9314958715228603 75:-0.8364604762124147 76:-0.15212764054590655 77:-1.0 78:-0.4688152977724478 79:-1.0 81:-0.5703167975523762 82:-0.6394852988668249 83:0.7795625479898978 84:-0.48441650499010314 85:-0.9017662314170158 86:-1.0 87:-1.0 88:-1.0 89:-1.0 90:-0.986743961352657 91:-1.0 93:-0.9938522677583035 94:1.0 95:0.4145920730818444 96:-0.9938044529035271 97:-0.6123249148841144 98:-0.4468924617187313 99:-0.650768 100:-0.9961213171918557 101:-1.0 102:-0.8159792975970426 103:-0.8280956766459641 105:-0.46469214832389294 106:0.843826 107:-0.9889437139487681 108:-0.9977612716970858 
0.0 1.0 0.0 0.8324965512563347 1:-0.40411544026546753 2:-0.6803314911243864 3:-0.9127802566458885 4:0.34339006029076224 5:-0.13858818677991946 6:-0.09675744744608483 7:-1.0 9:-0.9505770859726351 10:-0.30156806135604797 11:0.205041536195828 12:-0.23678541343171666 13:-0.33104995123091374 14:-1.0 15:-0.9206357960302052 16:-0.5718617508562172 17:-0.6984766558039821 18:0.5709216267414541 19:-0.6153195839049452 21:-0.9563869749005156 22:-0.07500260213495369 23:-0.23496921358239586 24:-0.10815148866903712 25:-0.3198123868670807 26:-1.0 27:-0.9061562 28:-0.9644197252068396 29:-0.9490510609358686 30:0.6914997325648438 31:-0.4822401379841883 33:-1.0 34:-0.20047927333645343 35:-0.783480605154548 36:-0.5809761425834293 37:-0.4849449992814693 38:-0.06395325506028571 39:-0.7056359999999999 40:-0.7647608108053834 41:0.43376144792777005 42:-0.6395320640394142 43:-0.5114334096396878 45:-0.38523697135298396 46:-0.71533 47:-0.8788001664620284 48:0.1541281488639663 49:-0.9820737213153974 50:-0.998297153559553 51:-0.96794 52:-0.8196095844755953 53:0.11864704488123645 54:0.02026657011099786 55:-0.976370629420185 57:-1.0 58:-0.9587478 59:-0.9588855430726598 60:0.4324124751551637 61:-0.9566732868463346 62:-1.0 63:-0.9570322 64:-0.9687447962339771 65:-0.45110625188100906 66:0.23808257360078144 67:-0.9658756133008425 69:-1.0 70:-0.970288 71:-0.9012045360285131 72:0.7041105049414256 73:-0.7977457267582332 74:-0.23398177591320846 75:-0.5419475152784983 76:-0.7249271110952117 77:0.10994379379203822 78:-0.5754798846361338 79:-0.21282489248977798 81:-0.6511716846798232 82:-0.2956919256797973 83:-0.48528001430831325 84:0.6470063059991611 85:-0.9538797908756835 86:-0.7370072591289045 87:-0.01340561122377637 88:-0.8417278033535838 89:0.06791586519851611 90:-0.7569071995238729 91:-0.5311676586022 93:-0.9992667006349748 94:0.0013849097694282886 95:-0.4539675083820599 96:0.525783602045915 97:-1.0 98:-0.9981738526247546 99:0.09371599999999991 100:-0.41278268811045926 101:-0.1876932426162331 102:-0.9613297312668847 103:-0.9960325979291332 105:-0.9990385442357111 106:0.08286400000000005 107:-0.5000782196407512 108:0.1875748064663607 
0.6134626856855069 0.0 0.0 0.0 1:-0.2991621830027986 2:0.09052646711177825 3:-0.28171136625614646 4:-0.4536576763256803 5:-0.8642883714739852 6:-0.4485603134189614 7:-0.35729993242753655 9:0.2155650202385755 10:0.12571839008493968 11:-0.32017043423554803 12:-0.6214519884650924 13:-0.19947080672009532 14:0.1823489774246696 15:0.06585547231774314 16:-0.6623997787539601 17:-1.0 18:-0.35786377832262906 19:0.0013449692386322543 21:0.297409535016955 22:-0.38680817560023417 23:-0.43808942350159774 24:-0.7481325425786696 25:-0.9463686458052064 26:-0.8951413745225131 27:0.980162 28:-0.9469900028061832 29:-1.0 30:-0.7285632215666382 31:-1.0 33:-1.0 34:-1.0 35:-1.0 36:-1.0 37:-0.3694154625757642 38:-0.2742787306876151 39:-0.42288400000000004 40:-0.5279211364448747 41:-0.5163844397300529 42:0.1013437509013353 43:-0.2658785161027314 45:-0.4001623074460402 46:-0.04025999999999996 47:-0.5877210178946681 48:-0.7673465389820668 49:-0.4159425245222612 50:-0.4572713432955411 51:-0.12365400000000004 52:-0.5722830036435441 53:-0.6065611932212572 54:0.09085491123887746 55:-0.35733874739572247 57:-0.4063530781103717 58:-0.10055400000000003 59:-0.8030944687321802 60:-0.8254020254648868 61:-0.6753788937719523 62:-0.3699526810382676 63:0.13751800000000003 64:-0.8853509435634757 65:-1.0 66:-0.909647128792075 67:-0.9008449619179788 69:0.12161159588652293 70:0.2554399999999999 71:-0.9476888477839953 72:-0.9987017450868915 73:-0.6846664537212217 74:-0.9972601074205703 75:-0.9745847112859578 76:-0.2180630332516501 77:0.10478399858728538 78:0.09033414720151023 79:-0.9670080037486868 81:-0.9959712173680709 82:-0.7186401900346626 83:-0.10195289974621236 84:0.4051806812245069 85:-0.8412499483874266 86:-0.6729459964804223 87:-0.7497917838079805 88:-0.6843852113449137 89:0.4567117870903581 90:-0.07781766609050211 91:-0.9898803740078086 93:-0.3679054302368605 94:-0.0014765322987035923 95:-0.18838713509019145 96:0.23687719236573357 97:-0.7024276823567168 98:-0.1635645753124011 99:-0.362294 100:-0.8422887763444703 101:-1.0 102:-0.9879114119152567 103:-0.8729527620378393 105:0.3755534447520499 106:0.462618 107:-0.9726263347479723 108:-0.9982453420935024 
0.7455378174576244 0.0 0.0 0.0 1:-0.7410176833970143 2:-0.18019039708654128 3:-0.983273705175852 4:-0.4215779205749116 5:-0.342836041197795 6:0.7860892374604456 7:-0.6831471579965522 9:-1.0 10:-0.8305007117533977 11:-0.48601209625530817 12:-0.972699176525184 13:-0.801316390757996 14:-0.701335798192045 15:-0.9637737506425837 16:-0.5110585981001484 17:-0.15032202798312133 18:0.22065909310699894 19:-0.8510227530367483 21:-0.9467243701902978 22:0.30317903843197413 23:-0.2491647398093061 24:-0.9720982795082022 25:-0.591509405658396 26:-1.0 27:-0.755448 28:-0.5979071991233005 29:0.15228784442809595 30:-0.44824321689564606 31:-0.6532128687910935 33:-0.959348362471318 34:0.42279501121853125 35:-0.28592256867829624 36:-0.763824826754687 37:-0.8545696001402409 38:-0.2022350988344167 39:-0.98799162 40:-0.8681774550478539 41:-0.18097824011221963 42:0.30670401266516456 43:-0.8204286744645489 45:0.4787945569924976 46:-0.681392 47:-1.0 48:-1.0 49:-0.9140401946379084 50:-0.3224410079724369 51:-0.42335199999999995 52:-0.5130721542016028 53:0.12802622445697254 54:-0.2911097192501493 55:-0.25815298269484244 57:-0.3235758204498874 58:-0.21824600000000005 59:-0.7398573415100191 60:-0.6337883728684818 61:-0.7701948823670477 62:-0.30614747373509366 63:-0.18398400000000004 64:-0.45596334438193775 65:0.43115537977963636 66:-0.6973920764440852 67:-0.35401800837039543 69:-0.3662209079748122 70:-0.35928800000000005 71:-0.18421572084750015 72:-0.4504444368688507 73:-0.8395456071811757 74:-0.6290249311920477 75:-0.3479651704321245 76:0.1564741445615041 77:0.07952204766218696 78:-0.3588929902101291 79:-0.995338591068149 81:-0.39157529115303413 82:-0.7881874224037089 83:0.27216632180753475 84:-0.24751353300286716 85:-0.9259810812883285 86:-0.4526231852177739 87:-0.5172833263753145 88:-0.405202516005316 89:0.6247580707594644 90:-0.5308298668490132 91:-0.35472392663157526 93:-0.32286793844344586 94:-0.23413902426704913 95:-0.021410021758261788 96:0.02931775210479648 97:-0.8510713267754264 98:-0.04207684684038382 99:-0.13588599999999995 100:-0.4163935533531372 101:-0.19758069483167118 102:-0.8005152850846011 103:-0.32984004996453786 105:-0.10584311756040854 106:0.008837999999999901 107:-0.5909714478254939 108:-0.20807113613364225 
0.0 0.0 1.0 0.0 1:-0.5295471282891031 2:0.33448338284935386 3:-0.6828844921272872 4:-0.7782696992075127 5:-0.3488077796238699 6:-0.4960648531613594 7:-0.7157865114578296 9:0.19833804003650246 10:0.15118523720271382 11:-0.4447847409885758 12:-0.5769644793981599 13:-0.9415325329509717 14:0.24901070496605526 15:-0.7237439048127648 16:-0.7039155116685063 17:-0.2092592676526177 18:-0.8141796606119907 19:-0.6588078192668765 21:-0.057234876050973105 22:0.20963696405223486 23:-0.64869450001299 24:-0.2644620711278928 25:-0.9552070644945146 26:0.649391184167589 27:-0.8084908 28:-0.3839430464509762 29:-0.2195137366735178 30:-0.9343877820189739 31:-1.0 33:-0.7466840027046413 34:-0.9329702292115692 35:-0.936385976240466 36:0.5370932987936994 37:-0.7137394271527127 38:0.24097113706701045 39:-0.8248282 40:-0.8556496925542297 41:0.34137480454757463 42:-0.6505841721761629 43:-0.7156646492520933 45:0.08727623784245253 46:-0.8133104 47:-0.39583569785078265 48:-0.2265915880582966 49:-0.7114726088934205 50:0.12419173911301629 51:-0.734864 52:-0.8008115029744751 53:0.03880550899825619 54:-0.7372283950131395 55:-0.49957481185424546 57:-0.09113635788568109 58:-0.8557238 59:-0.7253894096579597 60:-0.25246786163655066 61:-0.7608602965434182 62:0.7938565175550243 63:-0.632626 64:-0.748015841609234 65:-0.6025210829117583 66:-0.9989711816437028 67:-0.4204976342159037 69:-0.17607952370265734 70:-0.786872 71:-0.940999248135309 72:-0.2700810356374258 73:-0.5036896893453566 74:-0.6412473612484302 75:-0.9585420376539118 76:-0.7203972668896561 77:0.31497610601165715 78:-0.39109827034915534 79:-0.9698236000997634 81:-0.1854263695849202 82:-0.872887766159764 83:-0.11059647781132143 84:0.5348841202137811 85:-0.1034119351864049 86:0.6453695556533217 87:-0.722733137629666 88:-0.9552862504934145 89:-0.003933397252279258 90:-0.7596732957243528 91:-0.36301974248575564 93:0.366069148346412 94:-0.6132237151995903 95:-0.6067909533142206 96:-0.30789917063604666 97:-0.6139251159753034 98:0.7345699186149395 99:-0.21284800000000004 100:-0.9527685880053417 101:-0.998819558103153 102:-0.9555250959761126 103:-0.2211187882692217 105:0.18726821768756974 106:-0.26842200000000005 107:-0.8154584072074385 108:-0.994960985056686 
0.0 0.0 0.2274862023093161 0.0 1:-0.35128531697554133 2:0.3547955999957404 3:-0.4148739467886049 4:-0.8868964034962029 5:-0.9661343302958268 6:-0.5981096101149997 7:-0.5155509346400713 9:0.7000284337471361 10:-0.027687758142088237 11:-0.6278642817312229 12:-0.7008218417474923 13:-0.22314965891605276 14:0.19898912569250649 15:-0.2025748266895584 16:-1.0 17:-1.0 18:-0.20195236280271 19:-0.39057138136026337 21:-0.09736617995447716 22:0.10439081455816379 23:-0.6222389649528461 24:-0.7394250795535661 25:-1.0 26:-1.0 27:1.0 28:-1.0 29:-1.0 30:-1.0 31:-1.0 33:-1.0 34:-1.0 35:-1.0 36:-1.0 37:-0.9233259509829601 38:0.28336991615339246 39:-0.564586 40:-0.7812476153373469 41:-0.49848904135431893 42:-0.381838264906619 43:-0.6667565618238265 45:0.5469066037291004 46:-0.770696 47:-0.5504631014902479 48:-0.24383307034319324 49:-0.4950072439884138 50:-0.0396778975201314 51:-0.19677599999999995 52:-0.7952037528003167 53:-0.5832359862528993 54:-0.3965233212301402 55:-0.7543578241705288 57:-0.01876976797145824 58:-0.405108 59:-0.7593073159995598 60:-0.4144889342887451 61:0.04132025549742124 62:-0.2775720538735471 63:0.14473000000000003 64:-0.9948835358910799 65:-1.0 66:-0.9664036789658353 67:-0.4121408980144897 69:0.11414502778841196 70:-0.14934199999999997 71:-0.6486374393129863 72:-1.0 73:-1.0 74:-0.9918896133393902 75:-0.9529262004963635 76:-0.5077338258178761 77:0.5061909075845119 78:-0.35246492921674766 79:-0.9865109248524332 81:-0.7216194552569952 82:-0.8695879950912496 83:-0.722349030334241 84:0.6602486589634224 85:0.1174780818604908 86:-0.3901671799384073 87:-0.37544070282148856 88:-0.6790855306337428 89:-0.21133151898809555 90:-0.4864563349605232 91:-0.7052360683729186 93:0.1272528400703119 94:-0.054211171135614356 95:-0.738994260785997 96:0.28205907240801764 97:-0.2066907706774932 98:-0.22134717118495906 99:-0.09336599999999995 100:-0.9938629925714116 101:-1.0 102:-0.9215956775202616 103:-0.4145922461207163 105:0.0642366624186359 106:0.2443519999999999 107:-0.7692921724201558 108:-1.0 
1.0 0.6418462434125161 1.0 0.0 1:-0.9867016002564569 2:-0.998631294657594 3:-0.992699013742648 4:-0.7579747484210875 5:-0.4537157544147118 6:0.7437738791505275 7:-0.9910128286574649 9:-0.7048005394968566 10:-0.29798575291087603 11:-0.29976693976179236 12:-0.36638845529406805 13:-0.5519566816644716 14:-0.8659968271999982 15:-0.6769388559764029 16:-0.759920144007467 17:-0.5284340964406957 18:0.7610380744878746 19:-0.7996979583366958 21:-0.4108016041373116 22:-0.1869135162996648 23:-0.4924501831596996 24:-0.3391096671758984 25:-0.3827527926954887 26:-0.6946207937960291 27:-0.46134 28:-0.7336014501716293 29:-0.6423762536436883 30:0.3580409358249461 31:-0.6293746063596994 33:-0.22740794687272414 34:-0.10563296822052193 35:-0.7518101375930774 36:-0.41636295266120316 37:-0.6000362832498785 38:-0.9987964223826056 39:-0.40402000000000005 40:-0.966352058541209 41:-0.9793471686452065 42:0.9028298994456854 43:-0.4045501583618176 45:-0.9854789682805586 46:-0.5862080000000001 47:-0.9486320191775263 48:-0.9988177460411125 49:-0.5084828079773203 50:-0.8629243620047273 51:-0.6 52:-0.8741635134390144 53:-0.47438713664144105 54:0.8733741370993042 55:-0.582734526694729 57:-0.9938240429138939 58:-0.734082 59:-0.7558138836923138 60:-0.3886372084729832 61:-0.40113121602410284 62:-0.7048840086744039 63:-0.9401116 64:-0.7794584600968099 65:0.1808054028200463 66:0.14740469357133823 67:-0.9963100324544054 69:-1.0 70:-0.98363028 71:-0.02797868164185957 72:0.29665377471674925 73:-0.39987714685864517 74:-0.9975038372124094 75:-0.31190370790275435 76:-0.2870928506269339 77:-0.7092275184239523 78:0.49490093613595376 79:-0.30739231972670855 81:-0.9668187700061295 82:0.1642091816596456 83:-0.08490318760850724 84:-0.9374987429698288 85:0.2638218471599323 86:-0.4836807083150022 87:-0.28779565838693033 88:-0.5798794316798983 89:-0.02662859320752009 90:0.1536383839535016 91:-0.28380002415859507 93:-0.482136116575247 94:-0.27109814299927537 95:-0.0946052468185965 96:-0.18616873024202962 97:-0.2182400481182487 98:-0.11757922621752104 99:-0.050893999999999995 100:-0.6527574711559976 101:-0.013299608690117815 102:-0.9628501066401252 103:-0.2297022845468334 105:-0.03186582750569711 106:-0.47734600000000005 107:-0.8054320532054008 108:-0.054715953747129786 
0.0 0.0 0.6051169070207127 0.0 1:-0.4646115457593637 2:-1.0 3:-0.97150864036237 4:-0.5715139925270316 5:0.4393002353131128 6:0.12150260461455198 7:-0.4058948127602424 9:-1.0 10:-0.9971178645594893 11:-0.5847266904016357 12:0.16132948110607725 13:-0.8519640232473469 14:-0.9986545328822266 15:-0.93739088554274 16:-0.6527696497843098 17:0.6510608113926748 18:-0.497910539459687 19:-0.7601842992133852 21:-0.9719968722419212 22:-0.9827996767277322 23:-0.7919007040606895 24:0.6602325565881026 25:-0.8207320512435871 26:-0.9984045813151445 27:-0.9514932 28:-0.6469129990118512 29:0.7087628018920635 30:-0.8539124251520418 31:-0.8468796525949278 33:-0.9481778644579677 34:-0.7417849617445067 35:-0.8378805607365167 36:0.6659460298322162 37:-0.7938438739911269 38:-1.0 39:-0.98439174 40:-0.47610919445593547 41:0.49464422739725067 42:-0.1566705230469464 43:-0.5854087616419456 45:-0.40350028168035357 46:-0.79179 47:-0.7009478705585763 48:0.20701365438437014 49:-0.8066416746499423 50:-0.6663755458515284 51:-0.790436 52:-0.6120983706792429 53:0.36923959232735704 54:-0.4028496666468009 55:-0.6760987570333206 57:-0.5127208319627541 58:-0.77136 59:-0.725059274302464 60:0.15317313765726648 61:-0.8207935471134647 62:-0.4585105392232949 63:-0.54912 64:-0.7938039173475752 65:0.45073910388415106 66:-0.7729859452531854 67:-0.8913586047883907 69:-0.520581906509485 70:-0.78354 71:-0.3786536964462749 72:0.49232036403904766 73:-0.7362408576787309 74:-0.9751770301686129 75:-0.78750518297141 76:-0.05349732591625378 77:0.5202672546527058 78:-0.5846749917524942 79:-0.9191379531867617 81:-0.5565148601993932 82:-0.6769123673237981 83:-0.39261518346403035 84:0.3276617767171033 85:-0.7548691793305898 86:-0.4235041794984602 87:-0.7671477747214057 88:-0.49330007310709845 89:0.6008480178179025 90:-0.5366826853065385 91:-0.7820710467427867 93:-0.07918311617285967 94:-0.198594181499532 95:-0.3657736600851973 96:0.27473716720610053 97:-0.6500564446808463 98:-0.053151379401050636 99:0.052065999999999946 100:-0.7605565742091909 101:-0.48059122146442146 102:-0.8120549409924641 103:-0.8056745439450511 105:0.05861023640222096 106:0.033565999999999985 107:-0.41764875771165433 108:-0.6082940786668654 
0.0 0.0 1.0 0.0 1:-0.31494814545265515 2:-0.2675462415742901 3:-0.2549887989607208 4:-0.865656860691966 5:-0.9994449119675863 6:-0.8352541464387422 7:-0.2733179764659096 9:0.11491848744374655 10:0.5253882086354069 11:-0.7719772944994924 12:-0.6976727412280403 13:-0.37426340700387006 14:-0.01434815894105157 15:-0.04922066449394358 16:-0.9620972939337595 17:-1.0 18:-0.6731339632623573 19:0.050125082139192756 21:0.28098415991824477 22:0.1448400820596889 23:-0.5676755605206412 24:-0.7130627956157146 25:0.948110367725741 26:-0.893219525616334 27:-0.645986 28:-0.8245358825712086 29:-1.0 30:-1.0 31:-1.0 33:-1.0 34:-0.762964584793818 35:-1.0 36:-1.0 37:-0.5173328957600576 38:-0.26062735989590624 39:-0.525908 40:-0.967876234502203 41:-0.44070803834629024 42:-0.5104683098478706 43:-0.009771394524757726 45:0.4326883225500633 46:-0.328824 47:-0.794937353184962 48:-0.12209869715361454 49:-0.5826826065215405 50:0.0914266255358358 51:-0.256258 52:-0.8647500388410824 53:-0.6743909458750232 54:-0.6716597492176405 55:-0.10954972575364597 57:0.09334277978796068 58:-0.499436 59:-0.9238519793115177 60:-0.5274016003449314 61:-0.46309503778007133 62:0.4733359646283002 63:0.10325800000000007 64:-0.809340133448568 65:-1.0 66:-0.9890860488078647 67:-0.7360416006469026 69:0.058454673865691475 70:-0.6262719999999999 71:-1.0 72:-0.9987530540945045 73:-0.9614480290261022 74:-0.7859022526253908 75:-0.9161428276689548 76:-0.7063247893823672 77:0.5830314583013314 78:-0.5341198267979242 79:-0.6820837710580214 81:-0.7097323435265273 82:-0.7178656983127965 83:-0.4792421527844163 84:0.636829880281673 85:-0.4365991148197885 86:0.14537505499340075 87:-0.4361274595310307 88:-0.687248767339579 89:-0.15029686578807888 90:-0.8550020577304183 91:-0.2813677859466587 93:0.03898174805564647 94:-0.4260952709853768 95:-0.8383614894961046 96:0.49703834458653584 97:-0.5537144639775209 98:0.4712442109794106 99:0.07225400000000004 100:-0.7127997151835054 101:-1.0 102:-0.9733910422294896 103:-0.5906023116159989 105:0.480147333462966 106:-0.520872 107:-0.9664445763704482 108:-0.9954120841017317 
1.0 0.0 1.0 0.0 1:-1.0 2:-1.0 3:0.9301094515611947 4:-0.39581105955228324 5:-1.0 6:0.034649761907525445 7:-0.26103360592615565 9:-1.0 10:-0.5606963863363383 11:-1.0 12:-1.0 13:-0.6900713332164673 14:-0.9989567697179877 15:-0.9600829494467541 16:-0.6801661320710457 17:1.0 18:-0.7753567669964219 19:-0.9973049698534752 21:-0.9986263970394685 22:-1.0 23:-0.9421152996804448 24:0.14195558342617365 25:-0.8902915204064284 26:-0.9154442787947814 27:-0.98210152 28:-0.6763792523317254 29:1.0 30:-0.5522812270946742 31:-1.0 33:-0.805893978607 34:-0.9717120262254513 35:-0.6649440970287217 36:0.25733658833571105 37:-0.9922560741319792 38:-1.0 39:-0.902935 40:0.02419202608971527 41:0.6519436448882607 42:-0.23032204514208254 43:-0.5360657279939791 45:-0.9962286599212288 46:-0.699352 47:-0.533411061470575 48:-0.5496955804516901 49:-0.7174341392591315 50:-0.9993312166980489 51:-0.9425346 52:-0.5264134395156642 53:0.6743359236121691 54:-0.40253706017224844 55:-0.7696603455362331 57:-0.9993241668986108 58:-0.8525804 59:-0.8162316549785412 60:-0.07716934582903934 61:-0.5146237958140503 62:-0.9990062286299675 63:-0.9649032 64:-0.7333223585973865 65:0.9470957219765548 66:-0.6560686287957398 67:-1.0 69:-0.9988167205713456 70:-0.960111 71:-0.6607786124436933 72:0.22297721566872264 73:-0.8019708919957084 74:-0.9974674638591241 75:-0.9169041986575353 76:-0.2861381401255657 77:0.6560959001036555 78:-0.12853584034134902 79:-0.6854288694232615 81:-0.9951312349708454 82:-0.7028569788220433 83:-0.12750434029116187 84:0.025712092262335506 85:-0.1969948702017511 86:-0.9973720221073471 87:-0.13234643573490734 88:-0.6259322322890464 89:0.31224802139101127 90:-0.09502409127458988 91:-0.38632255000112603 93:-0.9948166521117865 94:0.2076812569671298 95:-0.5867657936366533 96:-0.158892373517603 97:-0.39599478419728484 98:-0.9980039775852311 99:0.38005200000000006 100:-0.9966570930424002 101:-0.7569756221745004 102:-0.8982040096687047 103:-0.774497216715134 105:-0.9973207384579228 106:0.24232600000000004 107:-0.6934351659459763 108:-0.5796659971541438 
1.0 1.0 0.0 0.7439093297494438 1:-0.29081347091899945 2:-0.9319817589368431 3:-0.7981495218798554 4:-0.5063983158266007 5:-0.9761108644402287 6:-0.8988854549924504 7:-1.0 9:-0.754740024741826 10:0.7636898578396556 11:-0.04675216974792318 12:-0.583477701129403 13:-0.9726890120476873 14:-0.579939154680468 15:-0.9830465704745887 16:-1.0 17:-1.0 18:-0.1293349337550559 19:-0.7362868857813695 21:-0.485991669634424 22:0.7556829641654534 23:-0.6893585513496662 24:-0.822837243744121 25:-0.9614136989589271 26:-0.032444157223569414 27:-0.9712398 28:-1.0 29:-1.0 30:0.6878025588279144 31:-0.5068015951026479 33:-0.03628635733359675 34:-0.6130781761901988 35:-1.0 36:-0.6644800849961501 37:-0.2401125596100162 38:-0.31837268266582364 39:0.023471999999999937 40:-0.9772488121869817 41:-1.0 42:-0.9551029738994627 43:-0.3030512088808053 45:-0.014982416693345657 46:0.06501200000000007 47:-0.5581705685503702 48:-0.7271297124707495 49:-0.682016118515963 50:-0.49682504707343456 51:-0.210102 52:-0.81529125800001 53:-0.7380855638512198 54:0.645987785857818 55:-0.3657929050271411 57:-0.781849649553402 58:-0.29714799999999997 59:-0.6575756059984594 60:-0.9351841162290047 61:-1.0 62:-0.9532054494414411 63:-0.44140599999999997 64:-0.7603117669219348 65:-0.6077760447171274 66:0.938248323911498 67:-0.6784828385038191 69:-1.0 70:-0.99912221 71:-0.5180746940975294 72:-0.9102227627774913 73:-0.4356781902913258 74:-0.5292680971595007 75:-0.3094339093525842 76:-0.3230744808342425 77:-0.1968523555928624 78:-0.3221439290691588 79:-0.4293077777693801 81:-0.12721671844466909 82:0.41050214219587633 83:-0.06363498999343176 84:-0.40192344011753534 85:-0.5230604978008128 86:-0.5255141882974044 87:-0.39096615554675107 88:-0.4636111169503362 89:-0.07746499842187693 90:0.031623201068753604 91:-0.5236784941415407 93:-0.43148513346679807 94:0.1164087727397134 95:0.1953330417834218 96:-0.3837220689152985 97:-0.6653425170961176 98:-0.9585698761023385 99:0.250718 100:-0.7638404070736935 101:-0.6811214538825086 102:-0.33752765533911555 103:-0.3608108046800924 105:-0.6771897526862617 106:0.0020240000000000258 107:-0.17070333496458046 108:-0.9154675372041774 
0.0 1.0 0.0 1.0 1:-0.3123627825574645 2:-0.4318994984506278 3:-0.7051143416360037 4:-0.9740050921996759 5:-0.7028640125849424 6:-0.8155295592361205 7:-0.514415178022267 9:-0.5705849164181815 10:0.7794496107645563 11:-0.5409085059837859 12:-0.6318872964958432 13:-0.2867996841621081 14:-1.0 15:-0.8200393785279718 16:-0.9417634000775349 17:-0.576831208386778 18:-0.502716355589435 19:-0.21785427450437878 21:-0.9839017078797826 22:0.770002250288488 23:-0.5508092800914499 24:-0.9422341710084791 25:-1.0 26:-1.0 27:-1.0 28:-1.0 29:-1.0 30:-1.0 31:-1.0 33:-1.0 34:-1.0 35:-1.0 36:-1.0 37:-0.536169609924488 38:0.1429891710799127 39:-0.27752 40:-0.9482513143256476 41:-0.2363241171221534 42:-0.3928284145790403 43:-0.2963122079714009 45:-0.03883962584907397 46:-0.8043154 47:-0.0361539017117386 48:-0.17888067733200186 49:-0.4463149096786051 50:-0.6332678979207564 51:-0.07204600000000005 52:-0.9005973006700714 53:-0.15415121810824994 54:-0.14964966709659422 55:-0.5670096517709086 57:-0.6137850762885555 58:-0.8044352 59:-0.1853740033413699 60:-0.2283891479568554 61:-1.0 62:-1.0 63:1.0 64:-1.0 65:-1.0 66:-1.0 67:-1.0 69:-1.0 70:-1.0 71:-1.0 72:-1.0 73:-0.40564633037666775 74:-0.04710739384870266 75:-0.501395145734139 76:-0.839250451642907 77:-0.19458330359939857 78:-0.3137374861109268 79:-0.19848389802967192 81:0.18685397555519478 82:-0.20828172208148232 83:-0.1863195256054051 84:0.017382581118303042 85:-0.029911698260115527 86:-0.1809090409150902 87:0.2631702430522169 88:-0.9483733086684465 89:-0.6407298670208015 90:-0.6867919033056648 91:0.4473004817387638 93:-0.24508632642713613 94:-0.21097731872541314 95:-0.44424377891878175 96:-0.4391285024494235 97:-0.8798424037578916 98:-0.759585130154985 99:0.9284300000000001 100:-0.9838855217812852 101:-1.0 102:-0.9827783762263614 103:-0.3525479041055909 105:-1.0 106:-0.769182 107:-1.0 108:-0.9974221627480493 
0.0 0.0 1.0 0.0 1:-0.08061584314540926 2:0.6421615606597877 3:-0.5062808243866492 4:-0.9973538693002083 5:-0.705802971905338 6:-0.4181659335198118 7:-0.39385646665105134 9:0.33636527390928284 10:-0.2773654405407924 11:-0.6763179341998027 12:-0.4698787310513015 13:-0.03156730808128483 14:0.5270716984593458 15:-0.79682052075483 16:-0.9953736366577033 17:-0.6844443034360227 18:0.21831989851354194 19:-0.3845113342479124 21:0.13807039004072275 22:-0.9613171264817836 23:-1.0 24:-0.9936759818277641 25:-1.0 26:-1.0 27:1.0 28:-1.0 29:-1.0 30:-1.0 31:-1.0 33:-1.0 34:-1.0 35:-1.0 36:-1.0 37:-0.648863753339129 38:0.27619036037624567 39:-0.44549000000000005 40:-0.9630653407607626 41:-0.3278681883889396 42:-0.4812602351644196 43:0.3085860328012795 45:0.1049538515755486 46:-0.36580999999999997 47:-0.8852278706961483 48:-0.9473464673117789 49:-0.2738515120991548 50:-0.08826769760826891 51:-0.44296800000000003 52:-0.9632295733495045 53:-0.5476535121133628 54:-0.35922644515836677 55:0.13827827146845806 57:-0.09342779787960842 58:-0.20565999999999995 59:-0.9387488870436879 60:-0.9522572157060668 61:0.22976616500808866 62:-0.19664199458071496 63:-0.20488399999999996 64:-0.9204709428036862 65:-0.9865170018245007 66:-0.8930767048042461 67:-1.0 69:0.7322834021993108 70:-0.5070479999999999 71:-0.981069067310742 72:-1.0 73:-0.5565755096357814 74:-0.6594393821981135 75:-0.6589033934190786 76:-0.7653469154130967 77:0.2810298302928118 78:-0.5437720006422908 79:0.080290674385737 81:-0.32543653309164433 82:0.064593126314203 83:-0.40768825145627174 84:0.3001640884262471 85:0.20964929010591882 86:-0.38971898372195335 87:-0.4658395832145549 88:-0.9609000815155826 89:-0.692334490623567 90:-0.9097746626904983 91:-0.04359807468281607 93:0.5578372735325008 94:0.33973046531323736 95:-0.9214421462392761 96:-0.9388846900368355 97:-0.008398250327109724 98:-0.44480668723213745 99:-0.14223200000000003 100:-0.9147906162533966 101:-0.9818422086356439 102:-0.9326728280961183 103:-0.5566917547926789 105:0.3840448435386332 106:0.11178599999999994 107:-0.9774011424078813 108:-0.992922781747479 
0.0 0.8307582917958554 1.0 1.0 1:1.0 2:-0.2365241883099597 3:-0.30682974297274723 4:-0.9980089995260507 5:-0.7736106762551942 6:-0.2830994965924234 7:0.2418571811329593 9:-0.37365963167132377 10:-0.2148012650277138 11:-0.7669923790731923 12:-0.4631695410941288 13:1.0 14:-0.9880438829521387 15:-0.532186581354841 16:-1.0 17:-1.0 18:0.5045549443360431 19:-0.2172663308086339 21:-1.0 22:-0.6045003516654126 23:-1.0 24:-0.9950989132682673 25:-1.0 26:-1.0 27:-1.0 28:-1.0 29:-1.0 30:-1.0 31:-1.0 33:-1.0 34:-1.0 35:-1.0 36:-1.0 37:-0.17403016198025 38:0.1972395678160359 39:-0.48111400000000004 40:-0.8566752481053228 41:-0.9983462624172329 42:0.05003145994438696 43:-0.01913512496472136 45:0.011542690084603402 46:-0.795328 47:-1.0 48:-0.8295403426078668 49:-0.21131397016770526 50:-0.9986309522855655 51:-0.704224 52:-0.7376868757235717 53:-1.0 54:0.9320699383895368 55:-0.031754468018764914 57:-1.0 58:-0.943676 59:-1.0 60:-0.9972459681603286 61:-1.0 62:-1.0 63:1.0 64:-1.0 65:-1.0 66:-1.0 67:-1.0 69:-1.0 70:-1.0 71:-1.0 72:-1.0 73:0.15958950670368632 74:0.11543168639606671 75:-0.6794449863890664 76:-0.5205072710036309 77:-0.38797523395062994 78:-0.4051105022949931 79:-0.21352777126964084 81:0.13675155464980437 82:-0.11221948716476604 83:-0.7537653374942567 84:-0.017014669848690267 85:0.469528919753754 86:-0.9722717773867136 87:0.11549880053082018 88:-0.6321638533280078 89:-1.0 90:-0.23142186006166865 91:-0.043348299378223265 93:-0.3876062184427981 94:0.32260879881689464 95:-0.9340487104315478 96:-1.0 97:-1.0 98:-0.976564503572387 99:0.743066 100:-0.7421476345736828 101:-0.9690020708354377 102:-0.8527519977250106 103:-0.9178772935068784 105:-0.9699650691552387 106:-0.08406999999999998 107:-0.7535479626792032 108:-0.8864023033970483 
0.0 0.0 0.0 1.0 1:-0.182952546807718 2:-0.7131611453641291 3:-0.36394335632591146 4:-0.1504375764656607 5:-0.4989194360776348 6:0.491926591758719 7:-0.3973277702603646 9:-0.6215870199199984 10:-0.5359207564521122 11:-0.5080198458656829 12:-0.19730053768781997 13:-0.4347880155401831 14:-0.8699354268168631 15:-0.15991725019090353 16:-0.21173196634887237 17:-0.4818227554354969 18:0.5751813274019124 19:-0.09023590760445599 21:-0.8287462644968491 22:-0.3338099186584885 23:-0.6091683770232001 24:-0.6241762786943208 25:-1.0 26:-1.0 27:-1.0 28:-1.0 29:-1.0 30:-1.0 31:-1.0 33:-1.0 34:-1.0 35:-1.0 36:-1.0 37:-0.6150387955591747 38:-0.30592276870131996 39:-0.16837999999999997 40:-0.21695510207360225 41:-0.5014496175440181 42:0.23322554697039122 43:-0.6426855655555207 45:-0.43125138048190914 46:-0.748162 47:-0.5569805714049876 48:-0.3225055454885345 49:-0.64670488371114 50:-0.1866231320860542 51:-0.15695400000000004 52:-0.3883677223088141 53:-0.06587434608156839 54:-0.01615320865807479 55:-1.0 57:-1.0 58:-0.9541556 59:-0.7155473744235137 60:-0.2797299380150928 61:-1.0 62:-1.0 63:1.0 64:-1.0 65:-1.0 66:-1.0 67:-1.0 69:-1.0 70:-1.0 71:-1.0 72:-1.0 73:-0.5130494606747096 74:-0.1585468829329557 75:-0.17576432553266919 76:-0.34370919562845437 77:-0.22326334670654846 78:-0.5017084185266598 79:0.005672156175130283 81:-0.4046568768696399 82:-0.061854560329546504 83:-0.4577488459296857 84:0.12513888650427885 85:-0.19421860530046375 86:0.22419984601847776 87:0.21665008561027688 88:-0.9913203188684049 89:-0.7124853353660352 90:-0.9646564223349225 91:0.17913598217996518 93:-0.2707469331974601 94:0.056652089287329455 95:-0.9390747069653433 96:-0.7575329498288794 97:-0.6755137812549796 98:-0.2299214313992758 99:0.5329520000000001 100:-0.7972010869182826 101:-1.0 102:-1.0 103:-0.3937202560531342 105:-0.09959837222543189 106:-0.206754 107:-0.9550138789721538 108:-0.9249770122618394 
0.0 0.0 1.0 0.0 1:-0.22435647510375245 2:0.7705278514306404 3:-0.5606732187518069 4:-0.9928625712301741 5:-0.8651584954361038 6:-0.7117355902087174 7:-0.05410009824126227 9:0.5768611822781833 10:-0.45704585775550743 11:-0.6492286135060552 12:-0.7988481423164806 13:0.7601100338461955 14:-0.17533541952577347 15:-0.3045422558057127 16:-1.0 17:-0.996721410668395 18:-0.4601898888996342 19:0.8183061841685593 21:-1.0 22:-0.17070524314803648 23:-0.9856525161726117 24:-0.9961394538989586 25:-1.0 26:-1.0 27:-1.0 28:-1.0 29:-1.0 30:-1.0 31:-1.0 33:-1.0 34:-1.0 35:-1.0 36:-1.0 37:-0.17508400693458515 38:-0.0230623772550117 39:-0.463612 40:-0.9336873009434228 41:-0.9991026120892895 42:-0.26404667822512495 43:0.3852488318856033 45:0.1602475808993422 46:-0.49670400000000003 47:-0.7302733898066083 48:-0.9893368228800228 49:0.07631190119014986 50:-0.6562197027362686 51:-0.131934 52:-0.917365822854594 53:-0.9988682640052822 54:-0.2711186476508973 55:1.0 57:-0.7217782950836265 58:-0.546204 59:-0.7835452535539571 60:-0.9875948183720323 61:-0.9086923974810636 62:-0.816892470209454 63:0.796252 64:-1.0 65:-1.0 66:-1.0 67:0.159769650213631 69:-0.8108415730485405 70:-1.0 71:-1.0 72:-1.0 73:0.18853698289065246 74:-0.5749565775058119 75:-0.6070236023003379 76:-0.7386485592144096 77:-0.233786135802036 78:0.07977456147066064 79:0.5504750100141333 81:-0.20464273178296188 82:-0.5873951328735566 83:-0.1299096170984344 84:-0.23458267824687817 85:0.590316104892479 86:-0.5817449406071271 87:-0.1188341735828109 88:-0.8626354992187117 89:-0.998394238957605 90:-0.3834710429844056 91:1.0 93:-0.013849352629657918 94:-0.12232429911701725 95:-0.6043964646873667 96:-0.9817017654429175 97:-0.6319111069217114 98:0.009044555862886217 99:0.05929399999999996 100:-0.9416140258051624 101:-0.9986283130971787 102:-0.9191311815725864 103:0.027348930616738487 105:0.35928409254645444 106:-0.11745000000000005 107:-0.954274603085464 108:-1.0 
0.0 0.0 0.0 1.0 1:-0.9584248693889221 2:-0.9983974033372733 3:-0.9461688262959314 4:-0.5639666251501758 5:0.7132714631850072 6:-0.5375783046211993 7:-0.841954242826113 9:-1.0 10:-0.9931772250933895 11:-0.46402722372353045 12:0.42051106880253863 13:-0.9716218755197167 14:-0.8473833807842155 15:-0.863390196792821 16:-0.7049748258551678 17:0.49554916988845754 18:-0.7047085393117807 19:-0.9908049064477825 21:-0.612610129600669 22:-0.6654126394596476 23:-0.5227637629575745 24:0.7846603379608936 25:-0.9871133379336554 26:-0.7013980689372756 27:-0.8388654 28:-0.800078200744503 29:0.25449314493600017 30:-0.9149858566943764 31:-0.989387813999759 33:-0.3802146980525759 34:-0.3833624258542454 35:-0.6602760909664829 36:0.7766272524875102 37:-0.8019122088039878 38:-0.20622860513051244 39:-0.582598 40:-0.3342001791258179 41:0.5213611706196957 42:-0.7363795532794721 43:-0.3936310326444855 45:-0.22158440855811923 46:-0.7817540000000001 47:-0.310276278817019 48:-0.26185575876736655 49:-0.8343955453835104 50:-0.4574856776571451 51:-0.53918 52:-0.45019671128797034 53:0.3930346047708535 54:-0.786014571060062 55:-0.8098792465666057 57:-0.47313074061891147 58:-0.8039478 59:-0.6487820006202543 60:-0.016183772707903277 61:-1.0 62:-1.0 63:-0.563294 64:-1.0 65:0.6305492109440074 66:-0.9425616014223324 67:-1.0 69:-1.0 70:-0.9464532 71:-0.873723548890057 72:0.5918240771185668 73:-0.6233126121034915 74:-0.12201587259172164 75:-0.517800376979795 76:-0.23060394941599438 77:-0.04803592746290708 78:-0.545145441349486 79:-0.34910023958341196 81:0.11483976760146475 82:-0.12699740927064862 83:0.26405622180352584 84:-0.5412048358257278 85:-0.14935400720019965 86:0.33608666959964806 87:-0.24707220520750584 88:-0.6380404494801921 89:-0.6452945134914632 90:-0.9646351485681361 91:-0.5401513802132918 93:0.39341156010459577 94:0.009031867020470541 95:-0.7670859046415825 96:-0.6504493329684098 97:-0.2677609977354798 98:0.02689984828315528 99:0.24851599999999996 100:-0.9454522939407543 101:-0.7185935838318804 102:-0.9589314375088867 103:-0.5414241405539955 105:0.08436421525905757 106:-0.17581999999999998 107:-0.9733950934223299 108:-0.9885948456097273 
0.0 0.0 1.0 0.0 1:-0.7523804572903942 2:0.27554600730494405 3:-0.7679464515279792 4:-0.7793691514102747 5:0.07764459974406845 6:-0.6415265352031831 7:-0.512689636810647 9:0.15809014539916655 10:-0.08424735960025609 11:-0.6998470095368821 12:-0.20612182963556724 13:-0.8599582578573666 14:0.05710687208723897 15:-0.6292903380364638 16:-0.778905325955173 17:0.17675733004582272 18:-0.7466183506175087 19:-0.6570343812565087 21:0.02899214963690122 22:-0.18930945192379156 23:-0.48564339715777716 24:0.0659737556621458 25:-0.9830681147680338 26:-0.05971194021255766 27:-0.5764659999999999 28:-0.7458648696454766 29:0.28036617645943473 30:-0.510060879293429 31:-0.9831219601631772 33:-0.3859997778134373 34:-0.3861765999714766 35:-0.3672774831427402 36:0.22000513319445858 37:-0.8526908208473769 38:-0.07491715663324572 39:-0.8245314 40:-0.8624335808696839 41:0.6431012672145702 42:-0.8860365918144323 43:-0.7841948634325316 45:-0.05321152829584619 46:-0.70365 47:-0.8219588866304165 48:-0.0561596431775262 49:-0.7989921050280775 50:0.06829854573134098 51:-0.73195 52:-0.8574952263056868 53:-0.14967960113091905 54:-0.8777553505746674 55:-0.6386432246268974 57:0.17213835682295486 58:-0.690492 59:-0.8623543652897688 60:-0.23493317456815566 61:-0.5301227007683207 62:0.42400361876970694 63:-0.689378 64:-0.8588632073032647 65:-0.5624295206970318 66:-0.8633886567314206 67:-0.704107613126004 69:0.6474607595939326 70:-0.753504 71:-0.6990505213150313 72:-0.4110274008003493 73:-0.9721122713907795 74:-0.8551425593886113 75:-0.9911845618561347 76:-0.8719708623249325 77:0.7355417482585993 78:-0.8466526452112337 79:-1.0 81:-0.994505472052976 82:-0.9847444363907767 83:-0.7901815367251848 84:0.6807682968406235 85:-0.5803632345452293 86:0.2976957765068191 87:-0.8712182864904063 88:-0.8899878310548677 89:0.05342690908224723 90:-0.9238644810403885 91:-0.5373710944457752 93:0.6173208472808951 94:-0.5461842153176424 95:-0.8844568803079631 96:0.0043188192549032944 97:-0.5001021166194237 98:0.5539976458647196 99:-0.774362 100:-0.9954552631245664 101:-1.0 102:-0.9654950092421442 103:-0.5041624512868439 105:1.0 106:-0.520462 107:-0.99831487416666 108:-1.0 
0.0 0.0 0.0 1.0 1:-0.8517076044672021 2:-0.9760809666805098 3:-0.9767293703428958 4:-0.5490868209022672 5:0.4534888414456537 6:-0.3820864561098444 7:-0.8089805657550844 9:-0.8424124322465489 10:-0.6366521444263348 11:-0.47569739344285733 12:0.653756806153402 13:-0.5589236939848463 14:-0.9956642006319728 15:-0.7391010316275959 16:-0.726351242903953 17:0.4893103026292531 18:-0.8574142570269702 19:-0.8154394783056462 21:-0.8239515042658285 22:-0.5664932889058605 23:-0.6077394715647813 24:0.7746882901153442 25:0.2379306551458602 26:-0.9821759711300364 27:0.26880799999999994 28:-1.0 29:-1.0 30:-1.0 31:-0.9909324627834847 33:-1.0 34:-0.6086470069520746 35:-1.0 36:0.0029163707121411253 37:-0.8377313184578803 38:-0.6820760395702481 39:-0.720394 40:-0.7110090085024519 41:0.360487765922356 42:-0.2608974790382764 43:-0.6868057951017592 45:-0.6720570607461676 46:-0.8568838 47:-0.575226047868151 48:0.554490322719362 49:-0.7278560361265043 50:-0.5843856416008975 51:-0.24664399999999997 52:-0.9314909462690008 53:0.35808065417238066 54:-0.9607847546994985 55:-0.42926286548464354 57:-0.5786887983603654 58:-0.783842 59:-0.8276573395091987 60:0.09585044642632279 61:-0.9639282794731592 62:-0.9758522513093649 63:0.9972380000000001 64:-1.0 65:-1.0 66:-1.0 67:-0.9882400861079846 69:-1.0 70:-0.953523 71:-1.0 72:-0.9041936409733073 73:-0.5172428478996209 74:-0.39553215936723407 75:-0.5099462974054094 76:-0.49707550038456727 77:-0.3092865428041661 78:-0.37594785262965524 79:-0.2985080831059683 81:-0.09628612890888999 82:-0.3369742290606632 83:-0.36612013432545865 84:0.5674221928983314 85:-0.15167804764872772 86:0.060954685437747624 87:0.09409434961133734 88:-0.9741123793908053 89:-1.0 90:-0.9786980201467637 91:0.8368066432041665 93:-0.057820455482622046 94:-0.0582754525624356 95:-0.9650763698796547 96:-0.9577200149652109 97:-0.8590514600432256 98:-0.2700161282180047 99:0.627672 100:-0.8569683648240372 101:-1.0 102:-0.9757015213991185 103:-0.13280374552564833 105:-0.5802758935203771 106:-0.223626 107:-0.9758836813773075 108:-1.0 
0.0 0.0 1.0 0.0 1:-0.7189960058569214 2:-1.0 3:-0.9678891238585212 4:-0.19839463445280903 5:0.4370289237670606 6:-0.3726809328709004 7:-0.4720214614188195 9:-1.0 10:-0.9962931923116608 11:0.21495589013283012 12:0.15927998007656363 13:-0.9021723593899594 14:-1.0 15:-0.8668631433947386 16:-0.06530215146958229 17:0.49018732465225057 18:-0.5576373679509862 19:-0.6777699641469628 21:-0.975348714057879 22:-0.9486154489526704 23:-0.11787430827985768 24:0.3587975903775209 25:-0.9913986579060534 26:-0.976440522884181 27:-0.797614 28:-0.05204206348889695 29:0.3782129557296605 30:-0.7165666956170871 31:-0.8769143014295827 33:-0.9543999111253749 34:-0.2660328581443323 35:-0.32694344309659495 36:0.31802049696484946 37:-0.8708670983286264 38:-1.0 39:-0.5921080000000001 40:-0.1822103162012475 41:0.029012026328063767 42:0.21914815657544895 43:-0.735316880428988 45:-0.7292791216536498 46:-0.8182186 47:-0.12272103509115861 48:-0.006432408348632901 49:-0.9205116278592191 50:-1.0 51:-0.7329939999999999 52:-0.3342227523542707 53:0.11655408265190359 54:0.013922232954794556 55:-0.8172697251867285 57:-0.8645443182105716 58:-0.862834 59:-0.3378745285567082 60:0.041860212096576754 61:-1.0 62:-0.9988981755369394 63:-0.9520286 64:-0.33137476507205865 65:0.4890273949850581 66:-0.5752184961850204 67:-1.0 69:-0.9973761244075986 70:-0.9428268 71:0.6128229524994511 72:0.3368493863219235 73:-0.8993190659885173 74:-0.9805684472116079 75:-0.6379551750592412 76:-0.0183809719713095 77:-0.038192886352668265 78:0.08344229791059288 79:-0.8773465192384724 81:-0.490300137783622 82:-0.6374041035430555 83:-0.058654833527091776 84:0.18508880151677554 85:-0.7250259045963701 86:-0.4687719973603167 87:-0.40731053325092836 88:-0.5767799709907296 89:-0.369602372544232 90:0.2816431452251156 91:-0.542669606644842 93:-0.21914666460697463 94:-0.2914289473158711 95:-0.16362158981087038 96:0.22536452592170364 97:-0.4571772273205721 98:-0.04384111978191041 99:-0.11702599999999996 100:-0.5808159767418626 101:-0.6326723905488878 102:-0.6254889805204038 103:-0.6259222797378978 105:-0.31385301066950555 106:0.12179600000000002 107:-0.40507344623703356 108:-0.31193461722205384 
0.0 0.0 0.0 1.0 1:-0.1680087333974476 2:-0.9668383754485725 3:-0.8338147135277307 4:-0.6214440023366803 5:-0.653796264881618 6:0.7449092104277435 7:-0.5509919334318555 9:-0.5904170828761852 10:-0.601219747976186 11:-0.17544431576087727 12:-0.3885546390714373 13:-0.18367291899836824 14:-1.0 15:-0.6476819572475956 16:-0.9579474491269918 17:-0.9933871859603958 18:0.9613805343967416 19:-0.4130707953379523 21:-0.4778409178886084 22:-0.6691886018160589 23:-0.36339404016523336 24:-0.6039546628062896 25:-1.0 26:-1.0 27:-1.0 28:-1.0 29:-1.0 30:-1.0 31:-1.0 33:-1.0 34:-1.0 35:-1.0 36:-1.0 37:-0.3016677045442733 38:-0.26334887849842215 39:-0.5326299999999999 40:-0.988466064493327 41:-0.38781812016143125 42:0.49835436182247617 43:-0.5537708927843457 45:-0.27552557583157755 46:-0.533432 47:-0.5857537393768679 48:-0.9798353494583518 49:-0.4847208831197102 50:-0.9531360923039942 51:-0.42435199999999995 52:-1.0 53:-0.017795469551526222 54:0.7546803823694446 55:-0.9643865952350582 57:-0.9986564752916172 58:-0.759578 59:-0.7564701527626326 60:-0.9768418422804965 61:-1.0 62:-1.0 63:1.0 64:-1.0 65:-1.0 66:-1.0 67:-1.0 69:-1.0 70:-1.0 71:-1.0 72:-1.0 73:-0.19064350475441671 74:-0.1926996766694279 75:-0.4201441817515338 76:-0.651828035845243 77:0.15405967993787928 78:-0.5381908574096266 79:-0.4614928238343927 81:0.03779357603507982 82:0.06560071191233141 83:-0.0476892382365004 84:-0.40394940484220276 85:0.4589665294919161 86:-0.9278899032116146 87:0.12727686860992016 88:-0.9932300724764621 89:0.1571483018800508 90:-0.7561659100550205 91:0.22703551518203913 93:-0.4011055064786866 94:0.06987392505042167 95:-0.6059945901294157 96:-0.7796257190708513 97:-0.5613474007392794 98:-0.5847050289749947 99:0.6220680000000001 100:-0.3447166118094712 101:-0.7265960693818837 102:-0.9593716479454002 103:-0.3174698950049072 105:-0.5662587904163303 106:-0.251738 107:-0.9750617734598753 108:-1.0 
0.0 0.9295951453492247 0.0 1.0 1:-1.0 2:-0.9977493956915737 3:-0.6677750836233547 4:-0.6316449348044133 5:-0.09901151037854106 6:0.471401996959085 7:-0.23032436467561002 9:-0.5020342782964167 10:-0.37556236532533793 11:-0.38979968258053443 12:-0.20923010344128368 13:-0.8214946563764643 14:-0.7272403343082225 15:-0.4837819357865475 16:-0.5804868894436501 17:0.2097034441810608 18:-0.36014836136915696 19:-0.15930584216209565 21:-0.3069693262932971 22:-0.15234646186694445 23:-0.160003637213894 24:0.07726936136998908 25:-0.27857550028502 26:0.779490296697742 27:-0.70268 28:0.2684506543992573 29:-1.0 30:-0.7547895916113985 31:-0.7404141902341554 33:-1.0 34:-0.926201748765158 35:-0.3143891800966092 36:-0.8346669690874254 37:-0.7578602666818866 38:-0.023529340232387064 39:-0.56186 40:-0.5693751079373622 41:-0.09772563398343326 42:0.5022919290554217 43:-0.9289096553670545 45:-0.7462593593571235 46:-0.9293286000000001 47:-0.48358938907747706 48:-0.4680033971716515 49:-0.6018404145758698 50:0.15769800889387442 51:-0.869707 52:-0.5435676661771855 53:-0.11246762151455125 54:0.09132494543442737 55:-0.9235203452527744 57:-1.0 58:-0.8865658 59:-0.5622625276363309 60:-0.3336113738728529 61:-0.2918651285237882 62:-1.0 63:-0.8916018 64:1.0 65:-1.0 66:-1.0 67:-0.9453083168511578 69:-1.0 70:-0.8054312 71:-0.8840132274956252 72:-0.7124548992525455 73:-0.12170815007739755 74:0.2594928252678834 75:-0.5012389054365614 76:-0.6060868943066163 77:-0.7151759180528727 78:-0.25453614221823917 79:-0.8840737493670312 81:-0.37405371989585023 82:0.6739642464996449 83:-0.578706516141566 84:-0.34415401256294353 85:0.4970674227335199 86:0.547657281126265 87:-0.581460550090575 88:-0.8767911823029437 89:-0.9953201803228899 90:-0.47129877612526194 91:0.12057390994576611 93:-0.4203702711692531 94:0.28120246347138944 95:-0.9185201682350972 96:-0.6418142054000306 97:-0.2709658885604699 98:-0.5469564963239886 99:0.26858399999999993 100:-0.22115916373149003 101:-0.6915262727836381 102:-0.9924724697852979 103:0.26400904926739344 105:-0.5786055920127693 106:-0.15989200000000003 107:-1.0 108:-1.0 
0.0 0.0 0.0 1.0 1:-0.9558242577045374 2:-0.9968595395542493 3:-0.9867011616849414 4:-0.38283807466355113 5:0.7366980453847758 6:-0.6813306589036456 7:-0.9932198700114755 9:-0.9974772180183613 10:-0.9763411367418023 11:-0.9098051158867013 12:0.47109264533969863 13:-0.975354456116063 14:-0.9982097811144313 15:-0.9887585781806022 16:-0.4988752503216216 17:0.42509280116754966 18:-0.5542059424189503 19:-0.989576565255986 21:-0.857134540049239 22:-0.5092000508075148 23:-0.5277649320620403 24:0.7451057045077019 25:-0.8629638074665227 26:-1.0 27:-0.8441688 28:-0.7244008931908165 29:-0.26072502129961794 30:-0.6313753048395858 31:-0.5284159489893101 33:-0.7756019952901935 34:-0.13238268750615156 35:-0.27386389574923564 36:0.7291153595922093 37:-0.8564424681171133 38:-0.8381951394504673 39:-0.8056968 40:-0.22086695289312297 41:0.3737744800184255 42:-0.4877722834151078 43:-0.9158264605349807 45:-0.971465159738819 46:-0.731544 47:-0.6689097768927317 48:0.4972783208129321 49:-0.885044115940779 50:-0.8940749569328152 51:-0.5667059999999999 52:-0.36381213946705016 53:0.012826535967629837 54:-0.5183701283148374 55:-0.9337560412149043 57:-0.9831876926191139 58:-0.758706 59:-0.6819295911323643 60:0.4685315530679657 61:-1.0 62:-1.0 63:-0.07857800000000004 64:-0.5849481496489668 65:-0.5209218162087099 66:-0.36944938019016793 67:-0.9967798564138428 69:-1.0 70:-0.9008322 71:0.26623772675152324 72:0.6127026578237493 73:-0.7793236525057946 74:-0.7601509766721001 75:-0.774170674497377 76:-0.31278507163682545 77:0.28536231656178157 78:-0.4995463136613364 79:-0.880673100904673 81:-0.7735641427291635 82:-0.12168677292723706 83:-0.3632523042860182 84:0.5574493447500288 85:-0.41315422623413034 86:-0.7195831500219974 87:-0.11859933480209262 88:-0.5413358745641019 89:-0.5875709410973017 90:-0.8259823605017063 91:-0.2824569700617682 93:-0.714631329659939 94:0.5897002181320985 95:-0.778447982636583 96:0.12865812779185304 97:-0.6156240672039572 98:-0.7166960269317327 99:0.1112280000000001 100:-0.9844882520231962 101:-0.9935775906315569 102:-0.9587025735816863 103:-0.21856007161987023 105:-0.6985259659140983 106:0.5124040000000001 107:-0.9917908085905222 108:-0.9961608422501785 
1.0 1.0 0.0 0.0 1:0.011091761321792681 2:0.08511697494382853 3:-0.8609110178613827 4:-0.48770762837964443 5:-0.5639976392323796 6:-0.08204667730951798 7:-0.6470324566887471 9:0.15850697520011559 10:-0.1360686168342451 11:-0.16434035373682776 12:-0.40292836408718957 13:-0.50005318901879 14:-0.43633291115572004 15:-0.4849123840229983 16:-0.9037169828559012 17:-0.8998966609709336 18:-0.8379575281448571 19:-0.9779903853913284 21:-0.5667064088072713 22:0.5655591355335521 23:0.15940349692135825 24:-0.528589250095064 25:-0.35406278439490757 26:-0.6772476277617461 27:-0.237336 28:-0.9722746442065617 29:-0.6836027071372048 30:-0.46574275553090316 31:-0.5731419753400797 33:-0.8561849469975327 34:0.4116347318499831 35:-0.22907571423577344 36:-1.0 37:-0.35845710575853906 38:0.26104081669879076 39:-0.47705200000000003 40:-0.674639639820553 41:-0.760570634278565 42:-0.6465248245133323 43:-0.17551506789174953 45:0.5477553674377511 46:-0.59397 47:-0.9607975044452928 48:-1.0 49:-0.46325485593652804 50:0.09465566283402116 51:-0.24729999999999996 52:-0.4441966411234345 53:-0.3851198638833867 54:-0.9341832930955575 55:-0.27330385362189435 57:-0.13372434908023578 58:-0.5538879999999999 59:-0.8905855400714293 60:-0.5435823508730573 61:-0.6103677578259665 62:-0.7287120106789184 63:-0.71548 64:-0.3766708771663231 65:0.4736546336200167 66:-0.4425470472257502 67:-0.7295037317102488 69:-0.9972956660638144 70:-0.715508 71:-0.1421334770526016 72:0.33693736095883575 73:-0.6071746234551219 74:-0.4556449242444486 75:-0.2905388487493764 76:-0.42462035165542766 77:0.21663036102842725 78:-0.657189524359951 79:-0.3274470384618291 81:0.013657867025707482 82:-0.32097055467443647 83:-0.3833641188206742 84:0.09327531781401843 85:-0.45070065297278583 86:-0.3002474703035636 87:-0.309260324378392 88:-0.3967846890846197 89:0.13142489623096587 90:-0.6772187082518155 91:-0.11052966695943611 93:0.02873394966295373 94:-0.12738468188775298 95:-0.4189950166561385 96:0.025543807139610797 97:-0.4680083219434027 98:-0.5322604215655797 99:-0.07724600000000004 100:-0.41584474686652606 101:-0.08933608714754393 102:-0.9504441347931182 103:-0.16009369863096556 105:-0.7604088181847432 106:0.02457599999999993 107:-0.8248804643438776 108:0.12313208574554757 
0.0 0.0 0.0 1.0 1:0.6943276237014702 2:-0.5994313644059674 3:-0.6728681426696241 4:-0.6119154165794085 5:-0.5196470630588959 6:-0.3315156778064894 7:-0.236687297893458 9:-0.8229438009220871 10:0.18921620974536157 11:-0.3027209425356382 12:-0.20455952738996186 13:0.1413704188148288 14:-0.9949442878428135 15:-0.757656852812146 16:-0.6356601206482311 17:-0.20514383614418508 18:0.5019836506681381 19:-0.4497231284753045 21:-1.0 22:-0.4890448207335216 23:-0.41423969239562497 24:-0.0508168833681345 25:-1.0 26:-1.0 27:-1.0 28:-1.0 29:-1.0 30:-1.0 31:-1.0 33:-1.0 34:-1.0 35:-1.0 36:-1.0 37:-0.3405295112258948 38:-0.19350629609587333 39:-0.23248999999999997 40:-0.7518826284103186 41:-0.2106627038000234 42:-0.6537355078617814 43:0.030123239988710804 45:-0.17082982783994605 46:-0.360714 47:-0.7461237390673312 48:-0.0651351522456094 49:-0.6240518897517329 50:-0.6578121870117383 51:0.048634000000000066 52:-0.6075737604682981 53:-0.18833274078588724 54:-0.30443035341398883 55:-0.7460939382343353 57:-0.6532820525796412 58:-0.62392 59:-0.6826218749687372 60:0.0780921180544012 61:-1.0 62:-1.0 63:1.0 64:-1.0 65:-1.0 66:-1.0 67:-1.0 69:-1.0 70:-1.0 71:-1.0 72:-1.0 73:-0.43767660139069764 74:-0.12539080244769263 75:-0.2723648972119118 76:-0.6988078415940759 77:-0.1723959423157635 78:-0.5781707529711115 79:-0.24520266338152708 81:0.07999832354528258 82:0.0510294740317061 83:-0.374227150641253 84:0.027909748912822163 85:0.24549692585681804 86:-0.15059667839859225 87:0.03585031765507818 88:-0.9490536951784351 89:-0.9929331650002085 90:-0.9497430052994472 91:-0.06909562913690359 93:0.04857924851970008 94:0.24607344602904413 95:-0.6783772547876274 96:-0.7375965770846464 97:-0.47054440501920014 98:-0.368565651412614 99:-0.17228 100:-0.36503652377528195 101:-0.998592039943993 102:-0.9526747618370539 103:-0.4271408458584933 105:-0.04778824941490489 106:0.43063000000000007 107:-0.9131876308674759 108:-0.9973578484504466 
0.0 0.0 0.1172701023086577 0.0 1:-0.3733614049679862 2:0.4680142478356706 3:-0.20557136372191898 4:-0.3873543708047219 5:-0.6996043205102052 6:-0.502011625539045 7:-0.1410410877650028 9:0.520404563095378 10:-0.5651241836874736 11:-0.5513890676160654 12:-0.47335716706155173 13:0.0326400781504006 14:0.12998013766047745 15:0.003094383693595937 16:-0.77559750011729 17:-0.5125751814098525 18:-0.6762877800975045 19:0.2919543940145026 21:-0.15260052955112036 22:-0.3685660729641458 23:-0.5614637187914058 24:-0.17350482658323285 25:0.9925294770633946 26:-1.0 27:-0.8441598 28:-1.0 29:-1.0 30:-1.0 31:-1.0 33:-0.9417769713228467 34:-0.96452493486824 35:-0.9458610003516428 36:-0.980122838537159 37:-0.684971702122672 38:0.12176424449889645 39:-0.667316 40:-0.7254615702827858 41:0.12424350797029238 42:-0.7987896734468455 43:-0.28169901847031886 45:0.19164687458895768 46:-0.657548 47:-0.44055689114965413 48:-0.12724223482292063 49:-0.3569207042532634 50:0.050566884339569906 51:-0.336962 52:-0.7338699249740641 53:-0.2328161240625053 54:-0.7609797401767913 55:-0.08833992374959232 57:-0.3617894284051517 58:-0.532188 59:-0.6382616872917897 60:-0.3514261162672856 61:0.04650598929730276 62:0.44695575433165846 63:0.11470200000000008 64:-0.9557863767647956 65:-1.0 66:-0.952393118273265 67:-0.5103728432026051 69:-0.4070150889097174 70:-0.690002 71:-0.9871149909399196 72:-0.9928289894023553 73:-0.6774387577090346 74:-0.5248376666755739 75:-0.9753372687192903 76:-0.7278940919741714 77:0.7290635806269408 78:-0.7624381005760883 79:-0.6515002305140084 81:-0.47054154726292574 82:-0.6226290520514127 83:-0.48730908115342275 84:0.4031326418236627 85:0.16353026069756615 86:0.379083260008799 87:-0.556186277211906 88:-0.8082321395621516 89:-0.2638085766521161 90:-0.8073331180630742 91:0.1397329042111708 93:0.07497237479584751 94:-0.07173456718339433 95:-0.41983727195667786 96:-0.3278887753385378 97:-0.2347941620714188 98:0.3846327575532935 99:-0.14393199999999995 100:-0.919792917019052 101:-0.9980386355206448 102:-0.9371327171903882 103:-0.2582443755869397 105:0.02761593137494911 106:-0.046009999999999995 107:-0.8607614180619179 108:-0.9958137145616406 
0.0 0.0 0.9078620501353295 0.0 1:-1.0 2:-0.9752636328786378 3:-0.9777822557330745 4:-0.6162911812360157 5:0.6189891245414012 6:-0.33902405826064286 7:-0.9013772312815008 9:-1.0 10:-0.9912348846318366 11:-0.5354837787214572 12:0.5018596568106442 13:-0.9972604059445845 14:-0.9881052927431314 15:-0.8607572256354716 16:0.22278932981710153 17:0.3725621280588127 18:-0.04936770068321328 19:-0.9197783490694734 21:-1.0 22:-0.9500353073603183 23:-0.4247902106986049 24:0.06710785262076446 25:-0.9911286790075305 26:-0.6758732332183739 27:-0.8860636 28:0.046552052038073555 29:-0.11093245556153886 30:0.08609326761970193 31:-0.6130263320957536 33:-0.5138612870088066 34:-0.40583564500027114 35:-0.4427984182245537 36:0.1340802330231532 37:-0.9377314203771215 38:-0.03682319249454302 39:-0.9480918 40:-0.7025748332242245 41:0.2600133561568527 42:0.34275101991110013 43:-0.7279616795760293 45:-0.7517663964024331 46:-0.9365482 47:-0.6266504331795967 48:-0.25210859959840737 49:-0.9573246426008126 50:-0.47666960458314966 51:-0.823529 52:-0.42426991294585803 53:0.19495657473716288 54:0.25240274059172574 55:-0.7972249387020423 57:-0.866430707725007 58:-0.9234519999999999 59:-0.6237057193449315 60:-0.17509401497590815 61:-0.9851718486465287 62:-1.0 63:-0.7638860000000001 64:-0.32389083936679997 65:0.13556627583304515 66:-0.1928724225198445 67:-0.98564881492247 69:-1.0 70:-0.9322114 71:0.6390517189756009 72:0.37425180320513585 73:-0.8097034325167695 74:-0.15568767870026456 75:-0.8978112336773958 76:-0.6600559858336166 77:-0.10909955163242324 78:0.498389430721766 79:-0.5409521362224422 81:-0.5691223235662383 82:-0.6886847563207337 83:0.28856537573199037 84:-0.40025067021169614 85:-0.5466784113944831 86:-0.19802023757149145 87:-0.43971226348284953 88:-0.6416771188796162 89:-0.0380476533608064 90:0.2740124476861614 91:-0.11179492219089793 93:-0.6097464959281633 94:-0.06875096174289552 95:-0.1991690827515833 96:-0.11202062989476647 97:-0.49952308172247173 98:-0.7770044027112412 99:0.17934000000000005 100:-0.5166928639677584 101:-0.48642733667021154 102:-0.6382357457699417 103:-0.41253256995262144 105:-0.7776285915329423 106:0.14496599999999993 107:-0.5187707081484809 108:-0.29104017588830267 
0.0 0.0 0.15177859826850018 0.0 1:-0.6076625165700622 2:-0.6545618630802159 3:-0.6395762673290104 4:-0.5600455211789214 5:-0.7153922267035109 6:0.7027394615195501 7:-0.3688125276988121 9:0.1618326815405433 10:-0.7868806969072537 11:-0.46376699695448886 12:-0.600897098989811 13:-0.41185530788950464 14:0.16665431885346438 15:-0.452156835343851 16:-0.7901755399662699 17:-0.45413197481791023 18:-0.3202660037431664 19:-0.5847541972647168 21:0.948949413932459 22:-0.7645412068941307 23:-0.32828713205684446 24:-0.5932354451997679 25:-0.6350484533917374 26:0.9279069916243834 27:-0.731732 28:-0.9455712178702 29:-0.46582327763830844 30:-0.2934978328889982 31:-1.0 33:0.21978502764302577 34:-0.9496190520190343 35:-0.6876281388227987 36:-0.994720234933179 37:-0.7421667419170398 38:0.5302376768591874 39:-0.6760379999999999 40:-0.7528545667042857 41:-0.9986015062133906 42:0.37599066777337287 43:-0.23090720938254572 45:-0.5723769602843111 46:-0.590422 47:-0.9543570748081731 48:-1.0 49:-0.5647733725155584 50:0.1600156243740236 51:-0.509012 52:-0.5595992602653221 53:-0.2442438248091151 54:-0.22340005644908278 55:-0.5256849072381194 57:-0.44275903949798845 58:-0.79735 59:-0.6585380005802379 60:-0.26987158758125884 61:-0.5365591583053223 62:-0.9904202163279244 63:-0.69684 64:-0.6065557163072968 65:0.4778456155161239 66:-0.38771018511053346 67:-1.0 69:-0.5123179892014627 70:-0.98515618 71:0.2562971440231194 72:0.32268546977906265 73:-0.9739403261341393 74:0.2972904363626647 75:-0.46227698199831335 76:-0.09237662546729386 77:-0.3108540755245973 78:-0.1969591776285149 79:-0.6119957978429935 81:-0.5796289796153584 82:-0.38087740324235875 83:0.2918310015510952 84:-0.40248021250554933 85:-0.6790602382633008 86:0.1648097228332599 87:-0.46010510119308434 88:-0.3542657875129339 89:-0.053090441338486394 90:-0.21048746050740463 91:-0.17289159956514533 93:-0.2844879028390115 94:-0.41949844887756527 95:-0.17903054255278938 96:0.09170209186530287 97:-0.5544865105067902 98:-0.7218666220284357 99:0.25128799999999996 100:-0.711443178124292 101:-0.20650184842251063 102:-0.918520801933741 103:-0.3261078320622923 105:-0.1463724100883973 106:-0.05845599999999995 107:-0.8321348346156006 108:-0.22510517853381895 
0.06496137675909426 0.6411921990561644 0.0 0.0 1:-0.6576781985634947 2:0.06428830037589583 3:-0.1384069551011169 4:-0.13117374100322954 5:-0.29581923763787965 6:0.006182068729748025 7:-0.17473632415909357 9:-0.6333922353540151 10:-0.3920133354837869 11:-0.4694862666037547 12:-0.2534100512647436 13:-0.5885387403342068 14:-0.7045180060516045 15:0.08359577367078752 16:-0.4799236503621175 17:-0.5124641372777418 18:-0.20828730224646874 19:-0.6638349300039581 21:0.12118359320564243 22:0.09790106785502939 23:-0.08927541503208536 24:-0.9816553546054343 25:-0.21122878601502104 26:-0.23689622297439972 27:-0.544492 28:-0.6487376830502546 29:-0.4695168968542297 30:-0.4101829715225871 31:-0.6986919682948733 33:0.5330543657602278 34:-0.1897066710590013 35:-0.5259773509168417 36:-0.6139527387979968 37:-0.8163959521754153 38:0.7089555959554197 39:-0.623062 40:-0.4569355026567652 41:-0.99659008287993 42:-0.4600832593570634 43:-0.36411615290539057 45:0.256433355917397 46:-0.714322 47:-0.6963533122160429 48:-0.9944977286491226 49:-0.9376129851701028 50:-0.029125435679660305 51:-0.40296 52:-0.23160812104384776 53:-0.2637280545820848 54:-0.15126217675309828 55:-0.9974802429241606 57:-0.35330988588345436 58:-0.75014 59:-0.652285437029182 60:-0.31144872217202046 61:-0.8865188145152849 62:-0.7050902253305009 63:-0.45201 64:-0.494858230682618 65:0.2759741597743164 66:-0.17461161759947896 67:-1.0 69:-0.9950141120249237 70:-0.8058156 71:-0.30611095216233175 72:0.3872940431273666 73:-0.9170308852797366 74:0.016847927744969793 75:-0.737231862604686 76:-0.056247428765628604 77:-0.23236132596818737 78:-0.2946168613226666 79:-0.9381508241820532 81:0.3084833847620745 82:-0.5614218152329145 83:-0.03226154609959686 84:-0.2738903182923029 85:-0.45902551529010194 86:0.3808650461944567 87:-0.4533108339047828 88:-0.21385811617255146 89:-0.314537788602974 90:-0.6256424867513819 91:-0.40869177113211674 93:0.12772125390396782 94:-0.2644801772308618 95:-0.45720695184567295 96:-0.2002500897661561 97:-0.34614616366937556 98:-0.0012089520909556173 99:-0.043856000000000006 100:-0.7509558379641812 101:-0.15403703414756997 102:-0.7662380207592777 103:-0.046787313483620196 105:-0.22556204806383517 106:-0.22998600000000002 107:-0.807966570128922 108:-0.19583241296765275 
